svm_type c_svc
kernel_type rbf
gamma 0.07142857142857142
nr_class 2
total_sv 1661
rho 0.568653795665687
label 1 -1
nr_sv 830 831
SV
1.0 0:0.11940298507462686 1:0.018146779258219777 2:0.057931817201339365 3:0.10640189685832839 4:0.02808548765131675 5:0.0 6:0.629495860666626 7:0.6585365853658537 8:0.07519645921777617 9:0.037895915869822244 10:1.1303266644060134E-4 11:0.0576392101846186 12:0.1553829525045516 13:0.0071244062994750435 14:0.7432345300794785 
1.0 0:0.04477611940298507 1:0.004481097447457247 2:0.010781948449742316 3:0.06105512744516894 4:0.037506660341697855 5:0.0 6:0.4147043373903207 7:0.6585365853658537 8:0.005509890705446663 9:0.018750907469249754 10:3.3909799932180403E-4 11:0.026148082921660223 12:0.3660094233857999 13:3.749687526039497E-4 14:0.672133073385644 
1.0 0:0.014925373134328358 1:0.0045072405104100224 2:0.004589545923666858 3:0.03141671606401897 4:0.023259616334658326 5:0.0 6:0.3104367926173147 7:0.3170731707317073 8:0.0071809231325083555 9:0.0160544274128311 10:2.2606533288120268E-4 11:0.009238392310792053 12:0.2877534105263886 13:2.499791684026331E-4 14:0.5786020321055154 
1.0 0:0.014925373134328358 1:0.0022308916137912527 2:0.0012809578644507643 3:0.02104327208061648 4:0.028716156303598257 5:0.0 6:0.17194751479371595 7:0.6585365853658537 8:0.0010387498870924035 9:0.01254900333948684 10:0.0 11:0.004775905556467621 12:0.4307189387830879 13:0.0 14:0.5193644253728418 
1.0 0:0.0 1:0.002850864093669957 2:5.973378642516518E-4 3:0.013337285121517486 4:0.03650269607570878 5:0.0 6:0.1072918925575195 7:0.3170731707317073 8:5.419564628308193E-4 9:0.004189915164588994 10:4.5213066576240535E-4 11:0.0022984045490500424 12:0.3407222355193873 13:2.0831597366886094E-4 14:0.4538512187644324 
1.0 0:0.014925373134328358 1:0.0036151580603462 2:8.395915536425995E-4 3:0.006520450503852994 4:0.03213465248629238 5:0.0 6:0.13401568044310527 7:0.6585365853658537 8:8.129346942462289E-4 9:0.005807803198440191 10:0.0 11:0.0029103174484724566 12:0.35129485966111107 13:0.0 14:0.47497062320486166 
1.0 0:0.014925373134328358 1:0.0024910881308962025 2:0.005140424176254492 3:0.08032009484291643 4:0.027201775674106626 5:0.0 6:0.32392065005755666 7:0.3170731707317073 8:0.002890434468431036 9:0.013088299350770572 10:5.651633322030067E-4 11:0.017670850558930196 12:0.4963085841679371 13:0.0021248229314223817 14:0.6368947774478725 
1.0 0:0.029850746268656716 1:0.006568243164173054 2:0.005014319516023588 3:0.016301126259632485 4:0.02973448784500444 5:0.0 6:0.32095471812522103 7:0.3170731707317073 8:0.005826031975431307 9:0.019559851486175353 10:0.0 11:0.00692506305687805 12:0.19897597493026117 13:0.0 14:0.552713899304473 
1.0 0:0.029850746268656716 1:0.003761126064699602 2:0.003122749612560024 3:0.026970954356846474 4:0.02523347833099834 5:0.0 6:0.2657652985784564 7:0.3170731707317073 8:0.0019871736970463374 9:0.01982949949181722 10:7.912286650842093E-4 11:0.011626345089025865 12:0.5102012258387066 13:4.999583368052662E-4 14:0.5992611353383529 
1.0 0:0.04477611940298507 1:0.005671925809679217 2:0.009308515051254908 3:0.043272080616478956 4:0.027997226891978352 5:0.0 6:0.39639614303233683 7:0.3170731707317073 8:0.01142624875801644 9:0.04895148410113875 10:1.1303266644060134E-4 11:0.012880020297598615 12:0.20746996353280708 13:8.332638946754438E-4 14:0.608465074972829 
1.0 0:0.08955223880597014 1:0.009226422005089838 2:0.016788512529161703 3:0.057794902193242445 4:0.029858029864640024 5:0.0 6:0.4705006161141859 7:0.3170731707317073 8:0.01919429139192485 9:0.02431239758561324 10:4.5213066576240535E-4 11:0.019118546930734445 12:0.17444520897388763 13:0.001124906257811849 14:0.6439749601354373 
1.0 0:0.08955223880597014 1:0.004235337792334369 2:0.008203440002389352 3:0.03704801422643746 4:0.022455788185983552 5:0.0 6:0.3807526710829325 7:0.3170731707317073 8:0.008039020865323819 9:0.018481259463607888 10:3.3909799932180403E-4 11:0.025043654761727086 12:0.4548293878017795 13:0.001374885426214482 14:0.6682518406878926 
1.0 0:0.05970149253731343 1:0.004326276098946142 2:0.005850592525975901 3:0.033491404860699465 4:0.028593213102887427 5:0.0 6:0.33947010101250763 7:0.3170731707317073 8:0.0038840213169542047 9:0.00433971961216781 10:6.781959986436081E-4 11:0.01734250705192305 12:0.43231178404408954 13:2.499791684026331E-4 14:0.635208398303907 
1.0 0:0.014925373134328358 1:0.005052853095185153 2:0.00292031844745252 3:0.01037344398340249 4:0.027339694790349107 5:0.0 6:0.2581973579308449 7:0.6585365853658537 8:0.003703369162677265 9:0.0027068511335587315 10:0.0 11:0.005507216094801725 12:0.2561273336524653 13:0.0 14:0.5321483880612232 
1.0 0:0.029850746268656716 1:0.00400081740511173 2:0.005266528836485397 3:0.03467694131594547 4:0.03858156652831652 5:0.0 6:0.32682062832864517 7:0.3170731707317073 8:0.0023484780056002167 9:0.0055381551927983245 10:1.1303266644060134E-4 11:0.014790382520185663 12:0.40626653579853994 13:4.166319473377219E-5 14:0.620897042938785 
1.0 0:0.05970149253731343 1:0.0039555634447451474 2:0.006391515147492675 3:0.04238292827504446 4:0.023714327998736656 5:0.0 6:0.3501827560963657 7:0.3170731707317073 8:0.008084183903893054 9:0.008099811246396051 10:2.2606533288120268E-4 11:0.014999328388281122 12:0.34440185232469717 13:0.0016248645946171153 14:0.622158166339702 
1.0 0:0.029850746268656716 1:0.004668549652740034 2:0.005084008933519614 3:0.03023117960877297 4:0.028622130605549276 5:0.0 6:0.3226021168720094 7:0.3170731707317073 8:0.005464727666877427 9:0.00922334460323716 10:6.781959986436081E-4 11:0.00941748876915959 12:0.2671916120210444 13:0.0019165069577535205 14:0.5803271077411016 
1.0 0:0.05970149253731343 1:0.005927956530763204 2:0.004572953205215423 3:0.014226437462951986 4:0.020564487560814762 5:0.0 6:0.3100082107878701 7:0.6585365853658537 8:0.007813205672477645 9:0.0023023791250959325 10:0.0 11:0.011745742727937556 12:0.3670563103930432 13:0.0 14:0.6001793952436152 
1.0 0:0.014925373134328358 1:0.006821461627276487 2:0.0035939828165807717 3:0.01985773562537048 4:0.030396848937571982 5:0.0 6:0.2818474516816762 7:0.6585365853658537 8:0.0033872278926926204 9:0.008253895821048546 10:9.042613315248107E-4 11:0.00749220184170858 12:0.29060761759901865 13:3.333055578701775E-4 14:0.5597827596691606 
1.0 0:0.3283582089552239 1:0.005426813092797071 2:0.04021411243889732 3:0.14730290456431536 4:0.024861441514934253 5:0.0 6:0.5823467475220439 7:0.3170731707317073 8:0.03247222473127992 9:0.009968086714057552 10:6.781959986436081E-4 11:0.11298001582018716 12:0.4372260168933746 13:4.999583368052662E-4 14:0.8037862165010984 
1.0 0:0.04477611940298507 1:0.00588182256852772 2:0.004944630098527562 3:0.024599881446354475 4:0.023722783380919932 5:0.0 6:0.3192862433434447 7:0.3170731707317073 8:0.004425977779785024 9:0.017672315446682293 10:9.042613315248107E-4 11:0.015611241287703536 12:0.45433251005118835 13:3.333055578701775E-4 14:0.6257529319547772 
1.0 0:0.05970149253731343 1:0.005989529653535702 2:0.011492116799463723 3:0.04593953764078246 4:0.02348591431923274 5:0.0 6:0.42268775859346464 7:0.3170731707317073 8:0.01142624875801644 9:0.003920267158947129 10:4.5213066576240535E-4 11:0.03189409429428533 12:0.41992332064112836 13:1.6665277893508876E-4 14:0.6899996264486083 
1.0 0:0.029850746268656716 1:0.0044539793364153975 2:0.005873822331807909 3:0.033491404860699465 4:0.02747029227449476 5:0.0 6:0.3399486972682564 7:0.6585365853658537 8:0.007271249209646825 9:0.004796623177283193 10:2.2606533288120268E-4 11:0.009372714654567706 12:0.23278554582843566 13:7.916006999416715E-4 14:0.5798989291860437 
1.0 0:0.029850746268656716 1:0.00477007951706963 2:0.002688020389132433 3:0.014522821576763486 4:0.026158403193157667 5:0.0 6:0.24893462911977768 7:0.6585365853658537 8:0.0032065757384156807 9:0.0040358305899365 10:4.5213066576240535E-4 11:0.0064325477963673265 12:0.321205814920259 13:2.0831597366886094E-4 14:0.5460896683022876 
1.0 0:0.05970149253731343 1:0.00463095030927509 2:0.007679110099324013 3:0.04267931238885596 4:0.023620979963376313 5:0.0 6:0.3726182517863879 7:0.3170731707317073 8:0.005464727666877427 9:0.003590085927548925 10:0.0 11:0.02598391116815665 12:0.5022893231632454 13:0.0 14:0.6715666191039954 
1.0 0:0.014925373134328358 1:0.0030170251477294667 2:0.02046545893799965 3:0.16123295791345585 4:0.02903451261572471 5:0.0 6:0.4956920338954372 7:0.3170731707317073 8:0.017613585042001625 9:0.01703622271542456 10:0.0 11:0.04304284882766443 12:0.32374432110696644 13:0.0 14:0.7169651051861785 
1.0 0:0.029850746268656716 1:0.0034608127618299075 2:0.003743317282643685 3:0.025192649673977476 4:0.040821445129319844 5:0.0 6:0.28655617010702916 7:0.3170731707317073 8:9.484238099539337E-4 9:0.004189915164588994 10:4.5213066576240535E-4 11:0.01396952375266779 12:0.5226203653507255 13:2.0831597366886094E-4 14:0.6157641038120403 
1.0 0:0.0 1:0.003996193854461595 2:0.0010387041750598168 3:0.007409602845287492 4:0.04799516938165605 5:0.0 6:0.1525018534306844 7:0.6585365853658537 8:8.129346942462289E-4 9:0.004243844765717367 10:4.5213066576240535E-4 11:0.0013879975523484022 12:0.1453498140686472 13:5.832847262728105E-4 14:0.40884514518159015 
1.0 0:0.014925373134328358 1:0.0029327893721689067 2:0.00349774504956245 3:0.03289863663307647 4:0.039655810299768404 5:0.0 6:0.2787203050317229 7:0.3170731707317073 8:0.0012194020413693434 9:0.006347099209723922 10:0.0 11:0.011775592137665478 12:0.46784545032486513 13:0.0 14:0.6004075035783735 
1.0 0:0.014925373134328358 1:0.0038231460533559047 2:0.006564079419387596 3:0.05216360403082395 4:0.031897526171852694 5:0.0 6:0.35342310497598384 7:0.6585365853658537 8:0.004877608165477373 9:0.043019227977017696 10:3.3909799932180403E-4 11:0.01486500604450547 12:0.3329378085940519 13:3.749687526039497E-4 14:0.6213494757162288 
1.0 0:0.04477611940298507 1:0.0023902400378525727 2:0.003355047670880111 3:0.02015411973918198 4:0.04231671271541474 5:0.0 6:0.2739409501701348 7:0.3170731707317073 8:8.129346942462289E-4 9:0.006347099209723922 10:6.781959986436081E-4 11:0.012671074429503156 12:0.5222303414642667 13:4.166319473377219E-4 14:0.6069949820009681 
1.0 0:0.014925373134328358 1:0.008922010014314027 2:0.007244380875896421 3:0.023414344991108477 4:0.030678808151054986 5:0.0 6:0.3654665666175366 7:0.3170731707317073 8:0.00794869478818535 9:0.027957460804736323 10:3.3909799932180403E-4 11:0.009208542901064131 12:0.18804668778322875 13:6.66611115740355E-4 14:0.5783112767964254 
1.0 0:0.014925373134328358 1:0.002711768770888508 2:0.001470114854797121 3:0.01007705986959099 4:0.05571982853624985 5:0.0 6:0.18534143156541483 7:0.6585365853658537 8:4.0646734712311447E-4 9:0.004729211175872727 10:2.2606533288120268E-4 11:0.005253496112114383 12:0.42746822981114013 13:8.332638946754438E-5 14:0.5279157746488297 
1.0 0:0.014925373134328358 1:0.0028771583364724795 2:0.0022964322336785723 3:0.02045050385299348 4:0.026245805459342936 5:0.0 6:0.23165688597534684 7:0.3170731707317073 8:0.002077499774184807 9:0.013357947356412438 10:0.0 11:0.007328030088205006 12:0.4178187253746732 13:0.0 14:0.5577929789277513 
1.0 0:0.014925373134328358 1:0.0026911171284394486 2:0.0012278611654061731 3:0.012151748666271488 4:0.03642464639401701 5:0.0 6:0.16792662342325831 7:0.3170731707317073 8:9.484238099539337E-4 9:0.010189583290120513 10:1.1303266644060134E-4 11:0.0034326821187111024 12:0.3192915270464337 13:4.166319473377219E-5 14:0.48975603953336094 
1.0 0:0.029850746268656716 1:0.002883239351182602 2:0.0032953138844549457 3:0.023117960877296978 4:0.047234527308326654 5:0.0 6:0.2718870914499947 7:0.3170731707317073 8:0.0011290759642308735 9:0.004055091161768061 10:1.1303266644060134E-4 11:0.009715982866438816 12:0.4067998767975995 13:4.166319473377219E-5 14:0.5831307204725041 
1.0 0:0.05970149253731343 1:0.003924299959421231 2:0.005346173885052283 3:0.046235921754593956 4:0.023189679181250932 5:0.0 6:0.3286195166189293 7:0.6585365853658537 8:0.005780868936862072 9:0.017672315446682293 10:0.0 11:0.01532767189528827 12:0.41525419790209467 13:0.0 14:0.6241049002487216 
1.0 0:0.014925373134328358 1:0.009883679263744245 2:0.008452330779160872 3:0.027860106698280974 4:0.029689308160432557 5:0.0 6:0.38444327765947667 7:0.3170731707317073 8:0.009710053292385511 9:0.015784779407189233 10:2.2606533288120268E-4 11:0.010745787502052146 12:0.1897118958130944 13:8.332638946754438E-5 14:0.5921830945177327 
1.0 0:0.07462686567164178 1:0.007858679665571817 2:0.021666771753883526 3:0.06520450503852994 4:0.027612871228815377 5:0.0 6:0.5029694763997933 7:0.6585365853658537 8:0.027684942642941017 9:0.004729211175872727 10:4.5213066576240535E-4 11:0.0263122546751638 12:0.18716357364917494 13:0.002249812515623698 14:0.6726959842849428 
1.0 0:0.029850746268656716 1:0.0036795743753108537 2:0.005631568642416962 3:0.04979253112033195 4:0.029158517151967142 5:0.0 6:0.3348691193298045 7:0.3170731707317073 8:0.005509890705446663 9:0.014706187384621767 10:3.3909799932180403E-4 11:0.011223378057698909 12:0.2898267175992243 13:9.582534788767602E-4 14:0.5960909515096535 
1.0 0:0.05970149253731343 1:0.002387440215034654 2:0.003126068156250311 3:0.03319502074688797 4:0.030132675790049163 5:0.0 6:0.26588577649310435 7:0.3170731707317073 8:0.0012645650799385784 9:0.0025720271307377984 10:0.0 11:0.012103935644672626 12:0.5306685224691612 13:0.0 14:0.6028792584418166 
1.0 0:0.08955223880597014 1:0.0073905604213454715 2:0.02003072971457206 3:0.08535862477771192 4:0.027370761971873967 5:0.0 6:0.49295510194769504 7:0.3170731707317073 8:0.024162225634540693 9:0.005987568535534768 10:1.1303266644060134E-4 11:0.029297195647956062 12:0.22503120527708675 13:0.0027914340471627366 14:0.6823607022974817 
1.0 0:0.07462686567164178 1:0.0038153427520308653 2:0.003813006700139711 3:0.01926496739774748 4:0.027307538648573004 5:0.0 6:0.2886967136647453 7:0.6585365853658537 8:0.0030710866227079757 9:0.004774152510146372 10:3.3909799932180403E-4 11:0.011178603943107025 12:0.4113946450449193 13:1.2498958420131655E-4 14:0.5957317147456467 
1.0 0:0.029850746268656716 1:0.0028031130397080427 2:0.0023793958259357463 3:0.02045050385299348 4:0.025203351055874505 5:0.0 6:0.23551338616456566 7:0.3170731707317073 8:0.0026194562370156264 9:0.00922334460323716 10:3.3909799932180403E-4 11:0.006895213647150128 12:0.3816725158676917 13:6.249479210065828E-4 14:0.5523260164199776 
1.0 0:0.014925373134328358 1:0.004200955892509898 2:0.004987771166501293 3:0.027267338470657973 4:0.02883937362515794 5:0.0 6:0.3203216230308594 7:0.3170731707317073 8:0.005238912474031253 9:0.006616747215365789 10:2.2606533288120268E-4 11:0.00941748876915959 12:0.2719077147286587 13:0.001124906257811849 14:0.5803271077411016 
1.0 0:0.04477611940298507 1:0.012259636027973251 2:0.02703617544476782 3:0.05038529934795495 4:0.028078662746849992 5:0.0 6:0.5312946638626287 7:0.3170731707317073 8:0.03730466985818806 9:0.0540747962083342 10:1.1303266644060134E-4 11:0.021969165559751057 12:0.12575932717262694 13:0.0016665277893508875 14:0.6564725694964393 
1.0 0:0.014925373134328358 1:0.003010462378039329 2:6.769829128185388E-4 3:0.010966212211025488 4:0.023741573119104985 5:0.0 6:0.11669541187256355 7:0.6585365853658537 8:9.484238099539337E-4 9:0.0018979071166331336 10:2.2606533288120268E-4 11:0.0031938868408877214 12:0.4404382869293197 13:6.66611115740355E-4 14:0.4832966799549243 
1.0 0:0.0 1:0.005450071405615931 2:0.02732820728951307 3:0.12211025489033787 4:0.030837972609393617 5:0.0 6:0.5326721040954687 7:0.6585365853658537 8:0.02989793153283353 9:0.007964987243575118 10:2.2606533288120268E-4 11:0.028774830977717415 12:0.16298661789187144 13:0.005249562536455295 14:0.6807425728294053 
1.0 0:0.0 1:0.005570407603773021 2:0.02837354855195346 3:0.12122110254890338 4:0.03299144215658171 5:0.0 6:0.5374867904182048 7:0.6585365853658537 8:0.026284888447294735 9:0.007964987243575118 10:2.2606533288120268E-4 11:0.035013357610853245 12:0.1911340073297524 13:0.005249562536455295 14:0.6983926109701324 
1.0 0:0.04477611940298507 1:0.0045968477977385595 2:0.00945784951731782 3:0.027267338470657973 4:0.025732589450491727 5:0.0 6:0.3983731995899144 7:0.3170731707317073 8:0.010929455333754855 9:0.0074256912322913865 10:3.3909799932180403E-4 11:0.01931256809396594 12:0.30640286514326515 13:0.001166569452545621 14:0.6448828863225711 
1.0 0:0.029850746268656716 1:0.004537393784083171 2:0.0060065640794193876 3:0.043272080616478956 4:0.02809953972882537 5:0.0 6:0.342650344023415 7:0.3170731707317073 8:0.006051847168277481 9:0.0045674223724876065 10:3.3909799932180403E-4 11:0.01247705326627166 12:0.3035298449755128 13:9.165902841429881E-4 14:0.6056080512061991 
1.0 0:0.1044776119402985 1:0.006700232151463992 2:0.0215207558315109 3:0.05542382928275044 4:0.02548442345391113 5:0.0 6:0.5021063019692684 7:0.6585365853658537 8:0.02488483425164845 9:0.0405923959262409 10:0.001017293997965412 11:0.0424757100428339 12:0.3041436455106262 13:0.0037080243313057245 14:0.7157719368983613 
1.0 0:0.08955223880597014 1:0.0036793898859221355 2:0.006650361555335057 3:0.04682868998221695 4:0.023032988274168584 5:0.0 6:0.3550135799721313 7:0.3170731707317073 8:0.006367988438262126 9:0.007695339237933253 10:1.1303266644060134E-4 11:0.020282673910123426 12:0.4487706125904704 13:0.001124906257811849 14:0.6492899928342377 
1.0 0:0.0 1:0.003926133373968665 2:6.272047574642344E-4 3:0.006816834617664493 4:0.025913955926192483 5:0.0 6:0.11089813153618223 7:0.6585365853658537 8:0.0011290759642308735 9:0.007695339237933253 10:0.0 11:0.0021640822052743907 12:0.31203394244857635 13:0.0 14:0.44846823074998765 
1.0 0:0.029850746268656716 1:0.0030992634130759165 2:0.004821843981986945 3:0.04030823947836396 4:0.02947447458859375 5:0.0 6:0.31629359027741316 7:0.6585365853658537 8:0.0049679342426158435 9:0.0160544274128311 10:4.5213066576240535E-4 11:0.008880199394056983 12:0.26444229886798304 13:3.333055578701775E-4 14:0.5750493856280816 
1.0 0:0.029850746268656716 1:0.002365897594102304 2:0.0033716403893315457 3:0.02756372258446947 4:0.018311526681005982 5:0.0 6:0.27450577276511173 7:0.3170731707317073 8:0.004471140818354259 9:0.005717920529892903 10:2.2606533288120268E-4 11:0.012790472068414847 12:0.524871173936305 13:4.999583368052662E-4 14:0.6078379735508875 
1.0 0:0.029850746268656716 1:0.006356503917811037 2:0.005113875826732197 3:0.01956135151155898 4:0.025994086932729362 5:0.0 6:0.32330182406456015 7:0.6585365853658537 8:0.006729292746816006 9:0.0045674223724876065 10:1.1303266644060134E-4 11:0.009148844081608286 12:0.2581799397370266 13:4.166319473377219E-5 14:0.5777269326010911 
1.0 0:0.029850746268656716 1:0.0034872139313129576 2:0.00404198621476951 3:0.03467694131594547 4:0.03031459317043098 5:0.0 6:0.29549235880134084 7:0.6585365853658537 8:0.0027097823141540964 9:0.005268507187156458 10:1.1303266644060134E-4 11:0.011671119203617748 12:0.407696250293458 13:4.166319473377219E-5 14:0.5996065817889658 
1.0 0:0.014925373134328358 1:0.0029350709547168244 2:0.0045099008750999715 3:0.04682868998221695 4:0.027429947941755076 5:0.0 6:0.3083666327493086 7:0.6585365853658537 8:0.0032969018155541503 9:0.03385119578519425 10:0.0 11:0.013656104950524604 12:0.4321646056681796 13:0.0 14:0.6137243375968793 
1.0 0:0.07462686567164178 1:0.0031630662393266206 2:0.008648124856887804 3:0.054831061055127445 4:0.04353800766153605 5:0.0 6:0.3872748967730759 7:0.3170731707317073 8:0.0034775539698310904 9:0.0067323106463551595 10:3.3909799932180403E-4 11:0.021715445577063713 12:0.375138981039308 13:6.249479210065828E-4 14:0.6554279638929299 
1.0 0:0.014925373134328358 1:0.0022126747148898517 2:0.0017389168937103643 3:0.02845287492590397 4:0.019304510659119888 5:0.0 6:0.20228082486425897 7:0.3170731707317073 8:0.0018516845813386325 9:0.0027517924678323756 10:7.912286650842093E-4 11:0.007701147709804039 12:0.5501883070818459 13:2.916423631364053E-4 14:0.5622531925724797 
1.0 0:0.029850746268656716 1:0.0034986991858338323 2:0.0026614720396101374 3:0.014522821576763486 4:0.02516049194173577 5:0.0 6:0.2478328921910905 7:0.6585365853658537 8:0.002845271429861801 9:0.003785443156126195 10:1.1303266644060134E-4 11:0.007686223004940078 12:0.3870669231918481 13:4.166319473377219E-5 14:0.5620789646576929 
1.0 0:0.04477611940298507 1:0.005115286049434377 2:0.006587309225219605 3:0.016004742145820983 4:0.03290413272134446 5:0.0 6:0.35385322142394343 7:0.6585365853658537 8:0.005419564628308193 9:0.006751571218186722 10:1.1303266644060134E-4 11:0.012148709759264511 12:0.27120344662517953 13:1.2498958420131655E-4 14:0.6032111163097761 
1.0 0:0.029850746268656716 1:0.004514111908128787 2:0.004864985049960675 3:0.026970954356846474 4:0.026367527661306896 5:0.0 6:0.3173529059004212 7:0.6585365853658537 8:0.004742119049769669 9:0.0036921034618655492 10:0.0 11:0.012387505037087892 12:0.36589989549719903 13:0.0 14:0.6049606477672788 
1.0 0:0.029850746268656716 1:0.002540418838320214 2:0.003736680195263111 3:0.04208654416123296 4:0.021532713484835084 5:0.0 6:0.286350464491304 7:0.3170731707317073 8:0.004335651702646554 9:0.00715604322664952 10:1.1303266644060134E-4 11:0.012059161530080742 12:0.4518636323418312 13:4.999583368052662E-4 14:0.6025461722260802 
1.0 0:0.04477611940298507 1:0.004838850274847147 2:0.0027975323309119026 3:0.016893894487255482 4:0.026322030496519187 5:0.0 6:0.25338340361121453 7:0.6585365853658537 8:0.0023936410441694517 9:0.004998859181514593 10:0.0 11:0.008790651164873214 12:0.4242203627293477 13:0.0 14:0.5741388683504755 
1.0 0:0.029850746268656716 1:0.006325187919881741 2:0.0026083753405655463 3:0.013633669235328987 4:0.025398828027026824 5:0.0 6:0.24560109726507418 7:0.6585365853658537 8:0.0031162496612772107 9:0.007515573900838675 10:0.0 11:0.006716117188782592 12:0.3440576836189151 13:0.0 14:0.5499629391080587 
1.0 0:0.04477611940298507 1:0.004116441803992317 2:0.007178010002090683 3:0.029045643153526972 4:0.0452776600637484 5:0.0 6:0.3643393570651391 7:0.3170731707317073 8:0.0032969018155541503 9:0.017672315446682293 10:2.2606533288120268E-4 11:0.015059027207736967 12:0.3101894068281907 13:8.749270894092159E-4 14:0.6225152647840086 
1.0 0:0.029850746268656716 1:0.008541988468446378 2:0.0079877346625207 3:0.014226437462951986 4:0.03370170954481634 5:0.0 6:0.3774674260047503 7:0.6585365853658537 8:0.007497064402492999 9:0.015784779407189233 10:0.0 11:0.009939853439398235 12:0.1851292399866709 13:0.0 14:0.5851775567772906 
1.0 0:0.014925373134328358 1:0.005704249772955894 2:0.005634887186107248 3:0.03023117960877297 4:0.02881916649729342 5:0.0 6:0.33494005614598454 7:0.6585365853658537 8:0.006955107939662181 9:0.009313227271784448 10:5.651633322030067E-4 11:0.007447427727116696 12:0.192213892033039 13:2.0831597366886094E-4 14:0.5592444408761476 
1.0 0:0.014925373134328358 1:0.0022446086118317237 2:0.0011581717479101472 3:0.004742145820983995 4:0.07196543617104827 5:0.0 6:0.16245376448136264 7:0.6585365853658537 8:2.258151928461747E-4 9:0.0031113231420215304 10:0.0 11:0.004447562049460472 12:0.43145662203713875 13:0.0 14:0.5129754488873208 
1.0 0:0.029850746268656716 1:0.0041770999883281555 2:0.003789776894307702 3:0.032009484291641965 4:0.026901103271640033 5:0.0 6:0.28798709564248015 7:0.3170731707317073 8:0.003522717008400325 9:0.009313227271784448 10:1.1303266644060134E-4 11:0.010163724012357656 12:0.37608743220001656 13:2.499791684026331E-4 14:0.58717887031805 
1.0 0:0.029850746268656716 1:0.0031253495797910853 2:0.00511055728304191 3:0.02045050385299348 4:0.028541351771227724 5:0.0 6:0.3232242639472985 7:0.6585365853658537 8:0.006322825399692891 9:0.024143867582087076 10:1.1303266644060134E-4 11:0.007208632449293316 12:0.20354834849210146 13:4.166319473377219E-5 14:0.556317721463945 
1.0 0:0.0 1:0.002854601293315258 2:0.0010088372818472342 3:0.01926496739774748 4:0.042379651274523325 5:0.0 6:0.14989051813672818 7:0.3170731707317073 8:5.871195014000542E-4 9:0.01254900333948684 10:4.5213066576240535E-4 11:0.0032983597749354507 12:0.35240254615553807 13:3.333055578701775E-4 14:0.48617985942290887 
1.0 0:0.029850746268656716 1:0.00809144751301129 2:0.010519783498209645 3:0.04090100770598696 4:0.027781874659653538 5:0.0 6:0.41162914064353057 7:0.3170731707317073 8:0.013323096377924306 9:0.013088299350770572 10:4.5213066576240535E-4 11:0.013700879065116488 12:0.19635611077446385 13:7.916006999416715E-4 14:0.6140185788068578 
1.0 0:0.04477611940298507 1:0.0045968477977385595 2:0.00945784951731782 3:0.027267338470657973 4:0.025732589450491727 5:0.0 6:0.3983731995899144 7:0.3170731707317073 8:0.010929455333754855 9:0.0074256912322913865 10:3.3909799932180403E-4 11:0.01931256809396594 12:0.30640286514326515 13:0.001166569452545621 14:0.6448828863225711 
1.0 0:0.0 1:0.003712197810385905 2:0.0011050750488655558 3:0.012744516893894487 4:0.042512521565974785 5:0.0 6:0.15812416079720296 7:0.6585365853658537 8:8.129346942462289E-4 9:0.006469666485015679 10:9.042613315248107E-4 11:0.0025222751220094625 12:0.2529620067665422 13:3.333055578701775E-4 14:0.4621637728226133 
1.0 0:0.014925373134328358 1:0.002422688727644773 2:0.00257187135997239 3:0.03052756372258447 4:0.02102604747879532 5:0.0 6:0.24404427935733078 7:0.3170731707317073 8:0.0030710866227079757 9:0.004998859181514593 10:2.2606533288120268E-4 11:0.00907422055728848 12:0.47044864198887226 13:9.999166736105324E-4 14:0.576991125640774 
1.0 0:0.0 1:0.0034911460203849013 2:5.87382233180791E-4 3:0.007113218731475993 4:0.03747908228981362 5:0.0 6:0.1060673076604166 7:0.6585365853658537 8:7.22608617107759E-4 9:0.013357947356412438 10:5.651633322030067E-4 11:0.0013581481426204797 12:0.2032412531919488 13:2.916423631364053E-4 14:0.4069098299495293 
1.0 0:0.029850746268656716 1:0.015919005043396717 2:0.02797200476542874 3:0.02874925903971547 4:0.02872732455576156 5:0.0 6:0.5356583035602598 7:0.3170731707317073 8:0.03129798572847981 9:0.45908610068241684 10:3.3909799932180403E-4 11:0.03892363028521111 12:0.21548010487445673 13:0.0027914340471627366 14:0.7079160320658314 
1.0 0:0.04477611940298507 1:0.0029055655033535235 2:0.00406521602060152 3:0.03467694131594547 4:0.03351055932013842 5:0.0 6:0.2961623942812547 7:0.3170731707317073 8:0.0024839671213079217 9:0.010931115305635643 10:6.781959986436081E-4 11:0.011044281599331374 12:0.3838210616573469 13:2.499791684026331E-4 14:0.5946453189769408 
1.0 0:0.014925373134328358 1:0.001958683346292625 2:0.0024689965055734943 3:0.04416123295791346 4:0.022177327415199167 5:0.0 6:0.23955417754844074 7:0.3170731707317073 8:0.0019420106584771024 9:0.005628037861345613 10:2.2606533288120268E-4 11:0.00986522991507843 12:0.5293938947600987 13:6.66611115740355E-4 14:0.5845004377821221 
1.0 0:0.029850746268656716 1:0.003293605355103924 2:0.004324062428443902 3:0.022821576763485476 4:0.03219695530237967 5:0.0 6:0.3034045052295983 7:0.6585365853658537 8:0.002935597507000271 9:0.020099147497459086 10:2.2606533288120268E-4 11:0.01123830276256287 12:0.36945230387068584 13:8.332638946754438E-5 14:0.5962103791182601 
1.0 0:0.0 1:0.0018486992453577318 2:7.134868934116953E-4 3:0.011855364552459988 4:0.020133943387574453 5:0.0 6:0.12078873122416693 7:0.6585365853658537 8:0.001445217234215518 9:0.0027068511335587315 10:0.0 11:0.0033431338895273345 12:0.44673440354910704 13:0.0 14:0.48738777943679085 
1.0 0:0.0 1:0.0036868727755285232 2:0.001672546019904625 3:0.025489033787788974 4:0.02978188676628184 5:0.0 6:0.19829830676974103 7:0.3170731707317073 8:0.001400054195646283 9:0.005653718623787695 10:6.781959986436081E-4 11:0.005238571407250422 12:0.3858788567147049 13:3.333055578701775E-4 14:0.5276604874141385 
1.0 0:0.07462686567164178 1:0.003219775161597638 2:0.004755473108181206 3:0.033491404860699465 4:0.020601699466046636 5:0.0 6:0.3146468848986928 7:0.3170731707317073 8:0.004651792972631199 9:0.006239240007467176 10:4.5213066576240535E-4 11:0.016924615315732132 12:0.5104039961083349 13:2.916423631364053E-4 14:0.6330153538998371 
1.0 0:0.04477611940298507 1:0.002765910338197687 2:0.003793095437997989 3:0.028156490812092472 4:0.023234250188108506 5:0.0 6:0.28808870634752803 7:0.3170731707317073 8:0.0034323909312618554 9:0.014706187384621767 10:2.2606533288120268E-4 11:0.012671074429503156 12:0.4685012650236719 13:2.0831597366886094E-4 14:0.6069949820009681 
1.0 0:0.04477611940298507 1:0.008772374361941336 2:0.007566279613854256 3:0.03260225251926497 4:0.027098359845865037 5:0.0 6:0.37079944079321114 7:0.3170731707317073 8:0.009890705446662451 9:0.008558212855987225 10:0.0 11:0.010790561616644032 12:0.21152059785812344 13:0.0 14:0.5925567505142859 
1.0 0:0.05970149253731343 1:0.0033770573276078178 2:0.005004363884952727 3:0.04001185536455246 4:0.03188880359614477 5:0.0 6:0.32071766746923036 7:0.3170731707317073 8:0.0019871736970463374 9:0.010661467299993779 10:5.651633322030067E-4 11:0.017685775263794157 12:0.5090856753126641 13:3.333055578701775E-4 14:0.6369706852464494 
1.0 0:0.04477611940298507 1:0.004309908438429937 2:0.006318507186306361 3:0.026674570243034972 4:0.02841608073712455 5:0.0 6:0.34878722656808786 7:0.6585365853658537 8:0.004877608165477373 9:0.0065088880131090425 10:5.651633322030067E-4 11:0.01680521767682044 12:0.39002031890088706 13:7.082743104741271E-4 14:0.632378826472225 
1.0 0:0.014925373134328358 1:0.0027054354162609146 2:0.002409262719148329 3:0.03260225251926497 4:0.02422956946225398 5:0.0 6:0.23687427503470732 7:0.3170731707317073 8:0.0015355433113539878 9:0.003950228048462891 10:0.0 11:0.009701058161574854 12:0.5314044643834359 13:0.0 14:0.5829925950580075 
1.0 0:0.11940298507462686 1:0.005999695970501435 2:0.03806369612759137 3:0.16212211025489034 4:0.03069638985777395 5:0.0 6:0.5752641164778088 7:0.3170731707317073 8:0.03599494173968024 9:0.014975835390263634 10:2.2606533288120268E-4 11:0.05837052072295271 12:0.2384983233202588 13:0.004041329889175902 14:0.7443688076830862 
1.0 0:0.1044776119402985 1:0.0040424497643217205 2:0.019509718355197006 3:0.10640189685832839 4:0.023471514200806128 5:0.0 6:0.4895974480490912 7:0.3170731707317073 8:0.026736518832987083 9:0.009313227271784448 10:1.1303266644060134E-4 11:0.03881915735116338 12:0.3059466786642045 13:0.0022081493208899257 14:0.7076742661061176 
1.0 0:0.0 1:0.002284371460246134 2:0.00311611252517945 3:0.05868405453467694 4:0.0435459571661528 5:0.0 6:0.2655240083462023 7:0.3170731707317073 8:0.0011742390028001083 9:0.00882786086162909 10:2.2606533288120268E-4 11:0.009432413474023552 12:0.41469172340575616 13:1.6665277893508876E-4 14:0.5804693823792392 
1.0 0:0.22388059701492538 1:0.007847605985129609 2:0.07017060633111766 3:0.13515115589804386 4:0.026835248247338427 5:0.0 6:0.6543096259607702 7:0.3170731707317073 8:0.09285520729834704 9:0.00850428325485885 10:2.2606533288120268E-4 11:0.08520514006835515 12:0.18989613367918334 13:0.008124322973085575 14:0.7783998549653905 
1.0 0:0.0 1:0.006717295474604581 2:0.004529812137241693 3:0.029045643153526972 4:0.02846593469174413 5:0.0 6:0.308887261517885 7:0.6585365853658537 8:0.005690542859723602 9:0.01545520962251584 10:0.002034587995930824 11:0.006447472501231288 12:0.2032249291892829 13:7.916006999416715E-4 14:0.5462977347299567 
1.0 0:0.029850746268656716 1:0.003550940892134113 2:0.006720050972831083 3:0.03852993479549496 4:0.06397618403121053 5:0.0 6:0.3562841833881086 7:0.3170731707317073 8:0.0017161954656309277 9:0.005268507187156458 10:1.1303266644060134E-4 11:0.016282853006581794 12:0.3567767819337407 13:4.166319473377219E-5 14:0.6295398310918875 
1.0 0:0.029850746268656716 1:0.01489911944036134 2:0.005983334273587379 3:0.015708358032009484 4:0.031041386403998797 5:0.0 6:0.34218157775066155 7:0.6585365853658537 8:0.007000270978231415 9:0.03331189977391052 10:4.5213066576240535E-4 11:0.0061042042893601775 12:0.14903224423597666 13:7.499375052078994E-4 14:0.5413861008955241 
1.0 0:0.029850746268656716 1:0.0021042585533920122 2:0.0012676836896896165 3:0.007113218731475993 4:0.023004437236460524 5:0.0 6:0.17095385411386982 7:0.6585365853658537 8:0.0017161954656309277 9:0.0014934351081703347 10:0.0 11:0.004581884393236124 12:0.416387426200734 13:0.0 14:0.5156441723344034 
1.0 0:0.0 1:0.00465056868982413 2:0.0030032820397096938 3:0.017190278601066984 4:0.0904856899531859 5:0.0 6:0.2613522610088741 7:0.6585365853658537 8:8.129346942462289E-4 9:0.006077451204082056 10:5.651633322030067E-4 11:0.00374610092085429 12:0.17005412264287073 13:4.999583368052662E-4 14:0.49758607935305343 
1.0 0:0.014925373134328358 1:0.0031052770127915 2:0.001815243398586964 3:0.012744516893894487 4:0.03063134582715397 5:0.0 6:0.20671524859367368 7:0.6585365853658537 8:0.0013548911570770482 9:0.014975835390263634 10:0.0 11:0.005805710192080951 12:0.4008875770567811 13:0.0 14:0.5368857286678115 
1.0 0:0.014925373134328358 1:0.009043512230560947 2:0.002999963496019407 3:0.01066982809721399 4:0.027147401062528026 5:0.0 6:0.26122751940842037 7:0.3170731707317073 8:0.004471140818354259 9:0.010661467299993779 10:1.1303266644060134E-4 11:0.004029670313269555 12:0.18310196266156056 13:3.333055578701775E-4 14:0.5041273332263748 
1.0 0:0.04477611940298507 1:0.003671608676561464 2:0.006703458254379648 3:0.06105512744516894 4:0.025031018902054374 5:0.0 6:0.35598277966409936 7:0.3170731707317073 8:0.007903531749616114 9:0.006347099209723922 10:2.2606533288120268E-4 11:0.014894855454233392 12:0.32711956810807935 13:0.0015415382051495708 14:0.6215298138324484 
1.0 0:0.014925373134328358 1:0.00689486832722237 2:0.008628213594746081 3:0.014226437462951986 4:0.06292287466949062 5:0.0 6:0.38698972756324934 7:0.6585365853658537 8:0.0032065757384156807 9:0.006616747215365789 10:3.3909799932180403E-4 11:0.011909914481441129 12:0.20619686714909172 13:1.6665277893508876E-4 14:0.6014268954847656 
1.0 0:0.014925373134328358 1:0.0019268538254815777 2:0.0038163252438299976 3:0.014522821576763486 4:0.0374156171858968 5:0.0 6:0.2887977732074478 7:0.6585365853658537 8:0.002212988889892512 9:0.00445956317023086 10:3.3909799932180403E-4 11:0.009357789949703745 12:0.34411813819898246 13:1.2498958420131655E-4 14:0.5797557490605681 
1.0 0:0.029850746268656716 1:0.003419746704331024 2:0.03031489661077133 3:0.21369294605809128 4:0.03396246654365005 5:0.0 6:0.5459824900699479 7:0.3170731707317073 8:0.02222021497606359 9:0.01902055547489162 10:7.912286650842093E-4 11:0.05451994686805069 12:0.27884668633930265 13:8.749270894092159E-4 14:0.7382292128513561 
1.0 0:0.014925373134328358 1:0.0031986537806473403 2:0.004280921360470171 3:0.02934202726733847 4:0.02770646179153244 5:0.0 6:0.3022250708724415 7:0.3170731707317073 8:0.0032969018155541503 9:0.002875381137084898 10:0.0 11:0.012462128561407698 12:0.4134092331794582 13:0.0 14:0.6055004735605397 
1.0 0:0.014925373134328358 1:0.00741455115003183 2:0.008080653885848735 3:0.01956135151155898 4:0.028240135746171128 5:0.0 6:0.3788927662393525 7:0.3170731707317073 8:0.01016168367807786 9:0.007066160558102232 10:1.1303266644060134E-4 11:0.01034282047072519 12:0.19053981326132724 13:0.001166569452545621 14:0.5887484802831627 
1.0 0:0.04477611940298507 1:0.0059328103459138325 2:0.009125995148289125 3:0.038233550681683465 4:0.02524488175831065 5:0.0 6:0.39393831687806874 7:1.0 8:0.013052118146508897 9:0.01942502748335442 10:2.2606533288120268E-4 11:0.01405907198185156 12:0.23077183003407203 13:0.0012082326472793933 14:0.6163385016550741 
1.0 0:0.05970149253731343 1:0.010231446924736482 2:0.010347219226314723 3:0.03052756372258447 4:0.028553700227250272 5:0.0 6:0.40956465268359604 7:0.6585365853658537 8:0.0112455966037395 9:0.019559851486175353 10:1.1303266644060134E-4 11:0.016924615315732132 12:0.24642893980307268 13:6.66611115740355E-4 14:0.6330153538998371 
1.0 0:0.04477611940298507 1:0.008448895445518429 2:0.00941470844934409 3:0.027267338470657973 4:0.0293157439395506 5:0.0 6:0.39780512185026795 7:0.3170731707317073 8:0.009529401138108571 9:0.02468316359337081 10:6.781959986436081E-4 11:0.016253003596853874 12:0.2589874855140407 13:0.0010832430630780768 14:0.6293748655280414 
1.0 0:0.014925373134328358 1:0.0038280823639718926 2:0.0033284993213578153 3:0.023117960877296978 4:0.026070204810039025 5:0.0 6:0.2730321149010596 7:0.6585365853658537 8:0.0038840213169542047 9:0.005313448521430103 10:2.2606533288120268E-4 11:0.007760846529259884 12:0.3220971241687178 13:5.416215315390384E-4 14:0.5629467504555148 
1.0 0:0.029850746268656716 1:0.0046278167699421585 2:0.060357672638939125 3:0.028156490812092472 4:1.0 5:0.0 6:0.6348037477680831 7:0.6585365853658537 8:0.001445217234215518 9:0.0025720271307377984 10:0.0 11:0.012148709759264511 12:0.03144409232204858 13:0.0 14:0.6032111163097761 
1.0 0:0.014925373134328358 1:0.0036166784896870586 2:0.0030862456319668678 3:0.032009484291641965 4:0.03238485268423022 5:0.0 6:0.2644326435395198 7:0.3170731707317073 8:0.0019871736970463374 9:0.01152434091804775 10:1.1303266644060134E-4 11:0.008880199394056983 12:0.39369774027728693 13:4.166319473377219E-5 14:0.5750493856280816 
1.0 0:0.014925373134328358 1:0.00524667432563365 2:0.006859429807823135 3:0.016893894487255482 4:0.08881043645394994 5:0.0 6:0.35878884564501506 7:0.6585365853658537 8:0.0015807063499232229 9:0.00517862451860917 10:3.3909799932180403E-4 11:0.010969658075011567 12:0.23578422196835302 13:1.6665277893508876E-4 14:0.5940360499611538 
1.0 0:0.05970149253731343 1:0.005319444046922203 2:0.010735488838078297 3:0.03230586840545347 4:0.024417497383456582 5:0.0 6:0.4141646255155324 7:0.6585365853658537 8:0.015039291843555234 9:0.006501183784376418 10:3.3909799932180403E-4 11:0.019103622225870483 12:0.2685133769480347 13:1.2498958420131655E-4 14:0.6439047387585795 
1.0 0:0.05970149253731343 1:0.0053811396863218345 2:0.0047322433023491975 3:0.01896858328393598 4:0.021798268332576094 5:0.0 6:0.3140655905053777 7:0.3170731707317073 8:0.005284075512600488 9:0.0028416751363796646 10:0.0 11:0.014805307225049625 12:0.4484867826179459 13:0.0 14:0.620987711651621 
1.0 0:0.0 1:0.0026784493928916028 2:0.0023628031074843115 3:0.015411973918197985 4:0.020288217027409638 5:0.0 6:0.234751155278692 7:0.3170731707317073 8:0.005103423358323548 9:0.01794196345232416 10:2.2606533288120268E-4 11:0.005820634896944913 12:0.324081877574687 13:2.499791684026331E-4 14:0.5371161735821632 
1.0 0:0.05970149253731343 1:0.002871496204826348 2:0.0035110192243235977 3:0.026970954356846474 4:0.02533317447125081 5:0.0 6:0.2791561194166678 7:0.3170731707317073 8:0.002258151928461747 9:0.0014934351081703347 10:0.0 11:0.012730773248959002 12:0.5041060935291067 13:0.0 14:0.6074174648890803 
1.0 0:0.07462686567164178 1:0.003766717221459959 2:0.0066868655359282134 3:0.03438055720213397 4:0.01939744725641927 5:0.0 6:0.35568067776081463 7:0.3170731707317073 8:0.008219673019600759 9:0.0031113231420215304 10:2.2606533288120268E-4 11:0.022401982000805933 12:0.49313196180634616 13:8.332638946754438E-5 14:0.6582270264171088 
1.0 0:0.04477611940298507 1:0.005981419072704007 2:0.005170291069467075 3:0.026970954356846474 4:0.02530112138846454 5:0.0 6:0.3246133374339473 7:0.6585365853658537 8:0.004425977779785024 9:0.01140299931550891 10:0.0 11:0.015372446009880155 12:0.42946648014925903 13:0.0 14:0.6243671307107599 
1.0 0:0.029850746268656716 1:0.010041851877991243 2:0.010161380779658655 3:0.03852993479549496 4:0.025587799108202233 5:0.0 6:0.4073041904417342 7:0.6585365853658537 8:0.014181194110739771 9:0.008414400586311562 10:7.912286650842093E-4 11:0.015342596600152232 12:0.22730109143728683 13:0.001583201399883343 14:0.6241923953357086 
1.0 0:0.029850746268656716 1:0.003988070900201545 2:0.005658116991939258 3:0.03734439834024896 4:0.03402379421352662 5:0.0 6:0.33543553643439816 7:0.3170731707317073 8:0.0031614126998464457 9:0.024143867582087076 10:3.3909799932180403E-4 11:0.01541722012447204 12:0.3964000358050493 13:4.999583368052662E-4 14:0.6246285992430212 
1.0 0:0.0 1:0.0024875696504320166 2:1.758828155852086E-4 3:0.005927682276229994 4:0.032979078154332576 5:0.0 6:0.04161594527267623 7:0.6585365853658537 8:3.161412699846446E-4 9:0.006212275206902989 10:3.3909799932180403E-4 11:0.0015820187155798995 12:0.3888465859907683 13:3.333055578701775E-4 14:0.42050174483280134 
1.0 0:0.029850746268656716 1:0.005113831439545503 2:0.015311760586984007 3:0.0939537640782454 4:0.03132927203547696 5:0.0 6:0.4588332298223475 7:0.3170731707317073 8:0.01133592268087797 9:0.013088299350770572 10:5.651633322030067E-4 11:0.033386564780681464 12:0.33314748629206054 13:0.0014165486209482543 14:0.6941131711983788 
1.0 0:0.05970149253731343 1:0.002742518874860029 2:0.01560379243172926 3:0.15411973918197985 4:0.02842550254104819 5:0.0 6:0.4612247795072748 7:0.3170731707317073 8:0.008626140366723873 9:0.006077451204082056 10:3.3909799932180403E-4 11:0.04811724848141128 12:0.47141129288187433 13:0.005666194483793017 14:0.7269905696733198 
1.0 0:0.1044776119402985 1:0.006918729791350836 2:0.018298449908242267 3:0.07617071724955542 4:0.030851970399473017 5:0.0 6:0.4814402155708536 7:0.6585365853658537 8:0.016439346039201518 9:0.007830163240754185 10:0.0 11:0.03137172962404668 12:0.26321257964682016 13:0.0 14:0.6885142807031408 
1.0 0:0.029850746268656716 1:0.005179540424071437 2:0.0051902023316087965 3:0.04919976289270895 4:0.02380797121232334 5:0.0 6:0.3250730934917449 7:0.3170731707317073 8:0.00731641224821606 9:0.013987126036243459 10:2.2606533288120268E-4 11:0.010969658075011567 12:0.30538484617614736 13:1.2498958420131655E-4 14:0.5940360499611538 
1.0 0:0.1044776119402985 1:0.008421524812388644 2:0.029684373309616808 3:0.12833432128037936 4:0.03240242108943324 5:0.0 6:0.5432834183172344 7:0.6585365853658537 8:0.027052660102971728 9:0.006515629213250089 10:6.781959986436081E-4 11:0.04098323955643777 12:0.21399584215139555 13:0.003333055578701775 14:0.7125542652012071 
1.0 0:0.1044776119402985 1:0.004930809953235204 2:0.011840563886943854 3:0.041790160047421455 4:0.03102506899978546 5:0.0 6:0.4264330781938509 7:0.3170731707317073 8:0.007677716556769939 9:0.0025720271307377984 10:2.2606533288120268E-4 11:0.030267301464113546 12:0.38722015922516007 13:0.0017498541788184318 14:0.6852907206235901 
1.0 0:0.029850746268656716 1:0.0035033622194433666 2:0.007473360390526222 3:0.03704801422643746 4:0.02239928119751013 5:0.0 6:0.36928231303536285 7:0.3170731707317073 8:0.008626140366723873 9:0.0014934351081703347 10:1.1303266644060134E-4 11:0.020834887990089996 12:0.4131939719281281 13:4.166319473377219E-5 14:0.6517055034910307 
1.0 0:0.029850746268656716 1:0.0036745111168374907 2:0.0042875584478507455 3:0.04208654416123296 4:0.0245358245930421 5:0.0 6:0.3024072180156416 7:0.6585365853658537 8:0.005464727666877427 9:0.009313227271784448 10:4.5213066576240535E-4 11:0.009835380505350507 12:0.32581579221835044 13:0.0012082326472793933 14:0.5842281571209095 
1.0 0:0.04477611940298507 1:0.002907588255844177 2:0.004616094273189154 3:0.036455245998814466 4:0.0221105026205249 5:0.0 6:0.311119607440584 7:0.3170731707317073 8:0.004154999548369614 9:0.005268507187156458 10:5.651633322030067E-4 11:0.015864961270390877 12:0.49157275880408685 13:6.66611115740355E-4 14:0.6272023311015397 
1.0 0:0.029850746268656716 1:0.002875469186018541 2:0.0031725277679143286 3:0.03112033195020747 4:0.021264503409075215 5:0.0 6:0.26756088453707416 7:0.3170731707317073 8:0.0031614126998464457 9:0.0027068511335587315 10:1.1303266644060134E-4 11:0.011506947450114173 12:0.4980507035462084 13:4.166319473377219E-5 14:0.5983334086692941 
1.0 0:0.05970149253731343 1:0.007050061829832807 2:0.010108284080614063 3:0.036751630112625965 4:0.028966819406620162 5:0.0 6:0.4066510819302523 7:0.3170731707317073 8:0.008445488212446933 9:0.011470411316919376 10:3.3909799932180403E-4 11:0.023088518424548156 12:0.34377498852837796 13:0.001374885426214482 14:0.6609416451977335 
1.0 0:0.04477611940298507 1:0.004474945820108197 2:0.009076216992934821 3:0.04090100770598696 4:0.023575671307546894 5:0.0 6:0.3932598828876024 7:0.3170731707317073 8:0.009484238099539338 9:0.004998859181514593 10:7.912286650842093E-4 11:0.024580988910944287 12:0.40558836139613297 13:6.249479210065828E-4 14:0.6665748162680093 
1.0 0:0.07462686567164178 1:0.006219734972808637 2:0.013440101945662166 3:0.06757557794902193 4:0.03157286756980463 5:0.0 6:0.4423670859143237 7:0.3170731707317073 8:0.01133592268087797 9:0.0036506191533052625 10:1.1303266644060134E-4 11:0.024476515976896557 12:0.27711469671229344 13:8.749270894092159E-4 14:0.6661917686667586 
1.0 0:0.029850746268656716 1:0.005339372446296638 2:0.006321825729996648 3:0.04593953764078246 4:0.03247081989344856 5:0.0 6:0.34885098473769394 7:0.3170731707317073 8:0.0050582603197543135 9:0.006077451204082056 10:3.3909799932180403E-4 11:0.012641225019775234 12:0.29323771858881253 13:1.2498958420131655E-4 14:0.6067829944120584 
1.0 0:0.014925373134328358 1:0.009327696174452985 2:0.007430219322552491 3:0.03052756372258447 4:0.02858339196931702 5:0.0 6:0.3685718879250689 7:0.3170731707317073 8:0.009393912022400867 9:0.01672854742693576 10:5.651633322030067E-4 11:0.008954822918376789 12:0.17856097241480476 13:9.165902841429881E-4 14:0.5758011752125763 
1.0 0:0.04477611940298507 1:0.0026871437082831365 2:0.0026647905833004242 3:0.01926496739774748 4:0.0212581960556469 5:0.0 6:0.2479711193723733 7:0.3170731707317073 8:0.0023936410441694517 9:0.015110659393084567 10:2.2606533288120268E-4 11:0.010387594585317076 12:0.5225493127410306 13:5.832847262728105E-4 14:0.5891366420203447 
1.0 0:0.05970149253731343 1:0.00369103775101972 2:0.005588427574443232 3:0.026081802015411975 4:0.023897002938650477 5:0.0 6:0.33394341228554164 7:0.3170731707317073 8:0.006097010206846717 9:0.004305478595578365 10:2.2606533288120268E-4 11:0.015059027207736967 12:0.3916481381169534 13:8.332638946754438E-5 14:0.6225152647840086 
1.0 0:0.014925373134328358 1:0.00446706327593883 2:0.0061028018464377096 3:0.03260225251926497 4:0.02435911799641915 5:0.0 6:0.34457462348470097 7:0.3170731707317073 8:0.005013097281185078 9:0.004729211175872727 10:2.2606533288120268E-4 11:0.019103622225870483 12:0.4579245311771688 13:1.6665277893508876E-4 14:0.6439047387585795 
1.0 0:0.08955223880597014 1:0.010453472352369453 2:0.01378523048945201 3:0.02874925903971547 4:0.028677080414561056 5:0.0 6:0.44556389991090684 7:0.3170731707317073 8:0.01625869388492458 9:0.009582875277426314 10:6.781959986436081E-4 11:0.017954419951345463 12:0.19835050990137754 13:0.003333055578701775 14:0.6383261890495417 
1.0 0:0.05970149253731343 1:0.005720209489804396 2:0.012630377285232149 3:0.04979253112033195 4:0.025586038860751382 5:0.0 6:0.43454418837617603 7:0.6585365853658537 8:0.014045704995032066 9:0.011632200120304496 10:2.2606533288120268E-4 11:0.026759995821082638 12:0.3217013939014416 13:7.916006999416715E-4 14:0.6742135360979029 
1.0 0:0.04477611940298507 1:0.00295135654977264 2:0.005239980486963101 3:0.033491404860699465 4:0.029216433082775346 5:0.0 6:0.32621544240123923 7:0.6585365853658537 8:0.003929184355523439 9:0.006616747215365789 10:1.1303266644060134E-4 11:0.014029222572123636 12:0.3871521816679574 13:4.166319473377219E-5 14:0.616147442793756 
1.0 0:0.05970149253731343 1:0.012438206656613455 2:0.02585809243471595 3:0.05216360403082395 4:0.026153782375935273 5:0.0 6:0.5255853306341172 7:0.6585365853658537 8:0.040104778249480624 9:0.02077326751156375 10:3.3909799932180403E-4 11:0.022775099622404968 12:0.136207669450743 13:2.0831597366886094E-4 14:0.65971251227607 
1.0 0:0.05970149253731343 1:0.004123171513860545 2:0.005166972525776788 3:0.034973325429756966 4:0.024375726782850587 5:0.0 6:0.3245365536028617 7:0.3170731707317073 8:0.0037485322012464997 9:0.016324075418472965 10:0.0 11:0.01749175410056266 12:0.48896244407315814 13:0.0 14:0.6359788541222038 
1.0 0:0.1044776119402985 1:0.0067355732073236165 2:0.01677191981071027 3:0.07854179016004742 4:0.028214241770214504 5:0.0 6:0.47037515450438366 7:0.3170731707317073 8:0.01666516123204769 9:0.009043579266142581 10:0.0011303266644060134 11:0.031610524901870066 12:0.288704627149233 13:0.0030830764102991416 14:0.6891963394102958 
1.0 0:0.07462686567164178 1:0.0030433870173867616 2:0.007012082817576335 3:0.03971547125074096 4:0.02259526487740103 5:0.0 6:0.36147795809719596 7:0.3170731707317073 8:0.006277662361123656 9:0.0035157951504843294 10:0.0 11:0.02256615375430951 12:0.4751386216176421 13:0.0 14:0.6588836632202669 
1.0 0:0.07462686567164178 1:0.005311429837282512 2:0.010131513886446073 3:0.046532305868405455 4:0.03757082042330536 5:0.0 6:0.40693721943206473 7:0.3170731707317073 8:0.004425977779785024 9:0.013627595362054304 10:2.2606533288120268E-4 11:0.02793904750533558 12:0.4150846371842907 13:8.332638946754438E-5 14:0.678091478087592 
1.0 0:0.04477611940298507 1:0.0024038351720453623 2:0.004231143205115867 3:0.05275637225844695 4:0.026998586336102397 5:0.0 6:0.3008507975308836 7:0.3170731707317073 8:0.002212988889892512 9:0.010931115305635643 10:3.3909799932180403E-4 11:0.015402295419608077 12:0.5163604747736333 13:7.082743104741271E-4 14:0.6245415274511511 
1.0 0:0.04477611940298507 1:0.006836978395019142 2:0.012736570683321331 3:0.07261410788381743 4:0.033497117790654375 5:0.0 6:0.43559727375146806 7:0.3170731707317073 8:0.009664890253816276 9:0.0152454833959055 10:1.1303266644060134E-4 11:0.02358103368505888 12:0.28120435492383794 13:8.749270894092159E-4 14:0.6628398470998349 
1.0 0:0.582089552238806 1:0.0042060673904628105 2:0.07877559012003173 3:0.3962655601659751 4:0.026339225507811086 5:0.0 6:0.6693010765147646 7:0.3170731707317073 8:0.0806611868846536 9:0.00985252328306818 10:2.2606533288120268E-4 11:0.16153008074265332 12:0.3209071877303852 13:8.332638946754438E-5 14:0.8359518396597237 
1.0 0:0.029850746268656716 1:0.006022428360448609 2:0.00876095534235756 3:0.05986959098992294 4:0.03378814944657721 5:0.0 6:0.38887918231858865 7:0.3170731707317073 8:0.007677716556769939 9:0.01120076331127751 10:2.2606533288120268E-4 11:0.012626300314911272 12:0.2154543669994593 13:1.2498958420131655E-4 14:0.6066768130547514 
1.0 0:0.05970149253731343 1:0.00881451078221884 2:0.008933519614252481 3:0.038233550681683465 4:0.027305516709355264 5:0.0 6:0.3912952476155388 7:0.3170731707317073 8:0.01079396621804715 9:0.018211611457966022 10:5.651633322030067E-4 11:0.014238168440219095 12:0.23849806492442252 13:0.0015415382051495708 14:0.6174764138441693 
1.0 0:0.04477611940298507 1:0.00279878154033788 2:0.014926809518910721 3:0.14522821576763487 4:0.02101390555372187 5:0.0 6:0.4556121994482727 7:0.3170731707317073 8:0.017703911119140096 9:0.004729211175872727 10:1.1303266644060134E-4 11:0.043162246466576126 12:0.4414660170906931 13:0.0032080659945004585 14:0.7172142952100767 
1.0 0:0.04477611940298507 1:0.00616081644162777 2:0.012003172527767914 3:0.03734439834024896 4:0.04736771900832056 5:0.0 6:0.428144753850829 7:0.3170731707317073 8:0.00713576009393912 9:0.007066160558102232 10:3.3909799932180403E-4 11:0.011909914481441129 12:0.15038046739113956 13:1.6665277893508876E-4 14:0.6014268954847656 
1.0 0:0.04477611940298507 1:0.005246614943785959 2:0.010937920003185803 3:0.05216360403082395 4:0.033467266274938 5:1.0 6:0.41650006362667424 7:0.6585365853658537 8:0.009484238099539338 9:0.013357947356412438 10:3.3909799932180403E-4 11:0.01620822948226199 12:0.22377234039826108 13:2.499791684026331E-4 14:0.6291268487705587 
1.0 0:0.0 1:0.0024525680999810035 2:7.002127186505474E-4 3:0.01956135151155898 4:0.03239777062923244 5:0.0 6:0.11931507336011492 7:0.3170731707317073 8:6.774455785385241E-4 9:0.0036506191533052625 10:1.1303266644060134E-4 11:0.0027162962852409593 12:0.36710813254614116 13:4.166319473377219E-5 14:0.46879483382669 
1.0 0:0.029850746268656716 1:0.002461299935535214 2:0.00292031844745252 3:0.03438055720213397 4:0.02205049668245005 5:0.0 6:0.2581973579308449 7:0.3170731707317073 8:0.0032517387769849158 9:0.0018170127149405738 10:1.1303266644060134E-4 11:0.009775681685894662 12:0.4546433700335089 13:6.249479210065828E-4 14:0.5836811117287938 
1.0 0:0.0 1:0.002479711237814628 2:7.533094176951386E-4 3:0.012744516893894487 4:0.03262417461269249 5:0.0 6:0.12511235369649623 7:0.3170731707317073 8:8.129346942462289E-4 9:0.015784779407189233 10:2.2606533288120268E-4 11:0.0024476515976896555 12:0.3163789044208472 13:1.2498958420131655E-4 14:0.4594773437798264 
1.0 0:0.014925373134328358 1:0.0039021606139427825 2:0.002903725729001085 3:0.025489033787788974 4:0.027797136787725663 5:0.0 6:0.2575571144588044 7:0.6585365853658537 8:0.0024839671213079217 9:0.024413515587728942 10:0.0 11:0.008387684133546259 12:0.39201258291732205 13:0.0 14:0.5699235363611275 
1.0 0:0.07462686567164178 1:0.0063745783337501 2:0.007861630002289795 3:0.04090100770598696 4:0.02720330606002215 5:0.0 6:0.3755077771669402 7:0.3170731707317073 8:0.008400325173877699 9:0.00985252328306818 10:2.2606533288120268E-4 11:0.015760488336343147 12:0.2979840310640431 13:4.999583368052662E-4 14:0.626608344193266 
1.0 0:0.04477611940298507 1:0.005866102694669061 2:0.00809724660430017 3:0.04060462359217546 4:0.027834506557196388 5:0.0 6:0.3791456601198983 7:0.3170731707317073 8:0.008626140366723873 9:0.004729211175872727 10:0.001017293997965412 11:0.015267973075832426 12:0.28072795484653834 13:0.0015415382051495708 14:0.6237540667054149 
1.0 0:0.029850746268656716 1:0.0029992752440987825 2:0.00357407155443905 3:0.01985773562537048 4:0.03244186982079176 5:0.0 6:0.28120657897519097 7:0.3170731707317073 8:0.0025742931984463913 9:0.0031113231420215304 10:2.2606533288120268E-4 11:0.008999597032968673 12:0.35079748245003667 13:1.6665277893508876E-4 14:0.5762492526024596 
1.0 0:0.04477611940298507 1:0.006318644798307457 2:0.00972997009992135 3:0.03408417308832246 4:0.043068986889147565 5:0.0 6:0.40190053245240054 7:0.6585365853658537 8:0.005238912474031253 9:0.021447387525668413 10:2.2606533288120268E-4 11:0.01738728116651493 12:0.26849391530038297 13:0.002083159736688609 14:0.635440228461865 
1.0 0:0.0 1:0.0024598057087183317 2:7.632650487659995E-5 3:0.00889152341434499 4:0.03631190796490668 5:0.0 6:0.01970691166269579 7:0.6585365853658537 8:2.258151928461747E-4 9:9.541390968866026E-4 10:0.0 11:0.0012984493231646345 12:0.3778865045358833 13:0.0 14:0.4029096740730555 
1.0 0:0.05970149253731343 1:0.008426780105909226 2:0.008399234080116282 3:0.03704801422643746 4:0.026610694786526713 5:0.0 6:0.38366466440155184 7:0.3170731707317073 8:0.010658477102339445 9:0.010931115305635643 10:5.651633322030067E-4 11:0.013506857901884991 12:0.23988573618133818 13:0.0015415382051495708 14:0.6127365264719586 
1.0 0:0.04477611940298507 1:0.006512973768753072 2:0.009159180585191995 3:0.033491404860699465 4:0.03285827011001009 5:0.0 6:0.39438865342129253 7:0.6585365853658537 8:0.008039020865323819 9:0.004263455529764049 10:1.1303266644060134E-4 11:0.01440234019372267 12:0.2355911919578746 13:5.832847262728105E-4 14:0.6185070087509177 
1.0 0:0.04477611940298507 1:0.004920349112496636 2:0.007304114662321587 3:0.03882631890930646 4:0.025314819713722028 5:0.0 6:0.366472791926214 7:0.6585365853658537 8:0.006955107939662181 9:0.014166891373338035 10:0.0 11:0.01931256809396594 12:0.39134752959349123 13:0.0 14:0.6448828863225711 
1.0 0:0.04477611940298507 1:0.010770893346158338 2:0.01384828281956746 3:0.048014226437462955 4:0.030543508716728045 5:0.0 6:0.4461395610461127 7:0.3170731707317073 8:0.016800650347755398 9:0.024548339590549875 10:0.0 11:0.01111890512365118 12:0.1222943937955952 13:0.0 14:0.5952504906583382 
1.0 0:0.08955223880597014 1:0.006653629192863878 2:0.010323989420482715 3:0.03556609365737996 4:0.03049486720520698 5:0.0 6:0.4092842282679749 7:0.3170731707317073 8:0.009664890253816276 9:0.016863371429756694 10:1.1303266644060134E-4 11:0.017909645836753578 12:0.2613328535065029 13:0.0010832430630780768 14:0.638101684925089 
1.0 0:0.029850746268656716 1:0.006985072245463348 2:0.015245389713178268 3:0.06016597510373444 4:0.02576692377512413 5:0.0 6:0.45828352475843126 7:0.3170731707317073 8:0.021271791166109656 9:0.019559851486175353 10:3.3909799932180403E-4 11:0.021357252660328643 12:0.21401347270784682 13:0.0010415798683443046 14:0.653932272565897 
1.0 0:0.05970149253731343 1:0.0031156398447114713 2:0.006431337671776118 3:0.05097806757557795 4:0.028411661885688666 5:0.0 6:0.3509377065884935 7:0.6585365853658537 8:0.005013097281185078 9:0.02171703553131028 10:3.3909799932180403E-4 11:0.016939540020596094 12:0.3867052358681595 13:4.166319473377219E-4 14:0.6330946041822616 
1.0 0:0.04477611940298507 1:0.0037731671386192368 2:0.008103883691680743 3:0.06046235921754594 4:0.02606982299885669 5:0.0 6:0.37924668052257254 7:0.6585365853658537 8:0.007542227441062235 9:0.014166891373338035 10:3.3909799932180403E-4 11:0.020581168007402655 12:0.37812706371280497 13:2.499791684026331E-4 14:0.6506037196679247 
1.0 0:0.014925373134328358 1:0.0040472218193507055 2:0.005601701749204379 3:0.04564315352697095 4:0.02578396473098049 5:0.0 6:0.33422894569643785 7:0.6585365853658537 8:0.006367988438262126 9:0.014436539378979901 10:3.3909799932180403E-4 11:0.012432279151679776 12:0.32262539110250316 13:0.00266644446296142 14:0.6052849316853317 
1.0 0:0.029850746268656716 1:0.003224013020957944 2:0.010168017867039228 3:0.05068168346176645 4:0.02749722273058253 5:0.0 6:0.40738559951637004 7:0.07317073170731707 8:0.012510161683678078 9:0.0055381551927983245 10:3.3909799932180403E-4 11:0.014924704863961314 12:0.2209719898953498 13:0.0014165486209482543 14:0.621709791272195 
1.0 0:0.05970149253731343 1:0.0029005036046685505 2:0.006192402526075457 3:0.04712507409602845 4:0.02248232512966729 5:0.0 6:0.34634102520529875 7:0.3170731707317073 8:0.005013097281185078 9:0.007964987243575118 10:2.2606533288120268E-4 11:0.021193080906825066 12:0.5011724042806955 13:2.499791684026331E-4 14:0.6532383500326229 
1.0 0:0.029850746268656716 1:0.003053555117725036 2:0.005213432137440806 3:0.03852993479549496 4:0.023039956299641767 5:0.0 6:0.32560743508402196 7:0.6585365853658537 8:0.006322825399692891 9:0.006616747215365789 10:1.1303266644060134E-4 11:0.013894900228347985 12:0.38523825364500086 13:4.166319473377219E-5 14:0.6152826222467316 
1.0 0:0.04477611940298507 1:0.007024454658273265 2:0.008701221555932394 3:0.03023117960877297 4:0.02913976965215049 5:0.0 6:0.3880323135419958 7:0.6585365853658537 8:0.009755216330954747 9:0.011740059322561242 10:1.1303266644060134E-4 11:0.012685999134367118 12:0.21788382233200423 13:2.916423631364053E-4 14:0.6071007888207731 
1.0 0:0.014925373134328358 1:0.003318815774166315 2:0.005505463982186058 3:0.04297569650266746 4:0.028236346917801323 5:0.0 6:0.3321445239952575 7:0.3170731707317073 8:0.0056453798211543674 9:0.009313227271784448 10:3.3909799932180403E-4 11:0.011193528647970987 12:0.2951615851687191 13:0.001124906257811849 14:0.5958516197465673 
1.0 0:0.029850746268656716 1:0.0044943252096234475 2:0.005130468545183632 3:0.032009484291641965 4:0.025229063654648064 5:0.0 6:0.3236889342725885 7:0.3170731707317073 8:0.004606629934061963 9:0.014706187384621767 10:4.5213066576240535E-4 11:0.014850081339641509 12:0.41782579142738874 13:2.0831597366886094E-4 14:0.6212591709521256 
1.0 0:0.07462686567164178 1:0.008345504812941608 2:0.011326189614949375 3:0.03141671606401897 4:0.030188802033851932 5:0.0 6:0.4208657488904699 7:0.3170731707317073 8:0.012239183452262669 9:0.008234635249216984 10:6.781959986436081E-4 11:0.0149694789785532 12:0.19986440709022654 13:0.0022081493208899257 14:0.6219790843106959 
1.0 0:0.014925373134328358 1:0.0018578500128498595 2:0.001466796311106834 3:0.021932424422050976 4:0.03580257184767609 5:0.0 6:0.1851179227989154 7:0.6585365853658537 8:0.0012194020413693434 9:0.02576175561593827 10:3.3909799932180403E-4 11:0.003507305643030909 12:0.2858739691955407 13:3.749687526039497E-4 14:0.49168306584266214 
1.0 0:0.07462686567164178 1:0.00785330733457236 2:0.011512028061605445 3:0.02874925903971547 4:0.02335262553867435 5:0.0 6:0.4229046990371638 7:0.3170731707317073 8:0.015310270074970643 9:0.013088299350770572 10:1.1303266644060134E-4 11:0.024939181827679357 12:0.32780781411717236 13:4.999583368052662E-4 14:0.6678758802310812 
1.0 0:0.13432835820895522 1:0.004892498875747032 2:0.01986148398636742 3:0.06639004149377593 4:0.027199765026568897 5:0.0 6:0.49187384987936367 7:0.3170731707317073 8:0.019239454430494084 9:0.021447387525668413 10:2.2606533288120268E-4 11:0.041908571258003374 12:0.3245792440480261 13:0.001374885426214482 14:0.7145627354597848 
1.0 0:0.05970149253731343 1:0.004198395434262619 2:0.010360493401075872 3:0.06876111440426794 4:0.02976930175800647 5:0.0 6:0.40972462490031947 7:0.3170731707317073 8:0.008716466443862344 9:0.0152454833959055 10:5.651633322030067E-4 11:0.022193036132710477 12:0.3227429362703649 13:0.004791267394383802 14:0.657384316808284 
1.0 0:0.05970149253731343 1:0.0038976321114585536 2:0.005532012331708353 3:0.02015411973918198 4:0.02089718255265138 5:0.0 6:0.3327228723192491 7:0.3170731707317073 8:0.006729292746816006 9:0.006077451204082056 10:3.3909799932180403E-4 11:0.01716341059355551 12:0.4505774178021062 13:0.0014582118156820265 14:0.6342750586678944 
1.0 0:0.029850746268656716 1:0.0028107204962934023 2:0.0033915516514732673 3:0.021932424422050976 4:0.029235913620158382 5:0.0 6:0.2751803466828539 7:0.3170731707317073 8:0.002258151928461747 9:0.012818651345128705 10:1.1303266644060134E-4 11:0.010596540453412533 12:0.4325954573954713 13:9.165902841429881E-4 14:0.5909262488095581 
1.0 0:0.05970149253731343 1:0.005264255322367056 2:0.010005409226215168 3:0.04238292827504446 4:0.025247436422221523 5:0.0 6:0.40537630043162093 7:0.3170731707317073 8:0.010387498870924036 9:0.013088299350770572 10:4.5213066576240535E-4 11:0.023924301896929987 12:0.3597194268673203 13:0.0010832430630780768 14:0.6641395493578094 
1.0 0:0.05970149253731343 1:0.006182623894950387 2:0.010045231750498611 3:0.04208654416123296 4:0.025854573126705326 5:0.0 6:0.405871243467144 7:0.3170731707317073 8:0.008987444675277753 9:0.008234635249216984 10:2.2606533288120268E-4 11:0.02623763115084399 12:0.39300723125614906 13:7.916006999416715E-4 14:0.6724405521240083 
1.0 0:0.04477611940298507 1:0.004627821677608093 2:0.010161380779658655 3:0.05542382928275044 4:0.025909882158702043 5:0.0 6:0.4073041904417342 7:0.6585365853658537 8:0.012645650799385783 9:0.01263888600803413 10:1.1303266644060134E-4 11:0.018118591704849037 12:0.2684275535066792 13:6.66611115740355E-4 14:0.6391446118785575 
1.0 0:0.014925373134328358 1:0.002854269831841079 2:0.002326299126891155 3:0.023710729104919975 4:0.040736891307487096 5:0.0 6:0.2330583991644216 7:0.6585365853658537 8:9.484238099539337E-4 9:0.010122171288710046 10:3.3909799932180403E-4 11:0.007611599480620271 12:0.42934253313745235 13:1.2498958420131655E-4 14:0.5612027290113355 
1.0 0:0.029850746268656716 1:0.003298298896345355 2:0.005256573205414536 3:0.03882631890930646 4:0.028065091875486104 5:0.0 6:0.3265940125751334 7:0.3170731707317073 8:0.0026646192755848614 9:0.012818651345128705 10:0.0 11:0.01835738698267242 12:0.505123511843609 13:0.0 14:0.6403219132476977 
1.0 0:0.04477611940298507 1:0.004283534022369771 2:0.004831799613057805 3:0.04445761707172496 4:0.025078243111056706 5:0.0 6:0.31653881253706045 7:0.3170731707317073 8:0.004200162586938849 9:0.007515573900838675 10:0.0 11:0.014521737832634359 12:0.43162807689400623 13:0.0 14:0.6192491877197258 
1.0 0:0.07462686567164178 1:0.00518703741719379 2:0.00914258786674056 3:0.04238292827504446 4:0.02656030881864153 5:0.0 6:0.3941636795284647 7:0.6585365853658537 8:0.009213259868123927 9:0.006279687208313456 10:0.0 11:0.020491619778218884 12:0.3357775865190723 13:0.0 14:0.6502116114663783 
1.0 0:0.029850746268656716 1:0.008582400716930911 2:0.008216714177150499 3:0.045050385299347954 4:0.027952669535429357 5:0.0 6:0.3809521622626813 7:0.6585365853658537 8:0.009619727215247042 9:0.007964987243575118 10:1.1303266644060134E-4 11:0.01293971911705446 12:0.23464488517836987 13:8.332638946754438E-5 14:0.6088807278590499 
1.0 0:0.08955223880597014 1:0.005096749058095215 2:0.008485516216063742 3:0.04860699466508595 4:0.023245687420047234 5:0.0 6:0.3849275609242018 7:0.3170731707317073 8:0.009303585945262398 9:0.0035697247516127024 10:9.042613315248107E-4 11:0.02281987373699685 12:0.40138050309609474 13:3.749687526039497E-4 14:0.6598891339026943 
1.0 0:0.029850746268656716 1:0.00302455177026798 2:0.0036072569913419197 3:0.02845287492590397 4:0.02208462850043758 5:0.0 6:0.2822729572249753 7:0.3170731707317073 8:0.004877608165477373 9:0.0025720271307377984 10:2.2606533288120268E-4 11:0.010148799307493694 12:0.3923684546249361 13:0.0014582118156820265 14:0.5870468252615226 
1.0 0:0.014925373134328358 1:0.009235125687336997 2:0.008472242041302595 3:0.02015411973918198 4:0.027918336040063142 5:0.0 6:0.3847340633615078 7:0.6585365853658537 8:0.011652063950862613 9:0.059467756321171523 10:3.3909799932180403E-4 11:0.008671253525961525 12:0.15274588285107732 13:2.0831597366886094E-4 14:0.5729103347321335 
1.0 0:0.16417910447761194 1:0.0062266150780729244 2:0.05432787875368773 3:0.24925903971547125 4:0.030856490278971468 5:0.0 6:0.6211885543322011 7:0.6585365853658537 8:0.04985999458043537 9:0.008989649665014207 10:0.0 11:0.08589167649209736 12:0.2467752977481772 13:0.0 14:0.7791219030977659 
1.0 0:0.029850746268656716 1:0.0032509642909904065 2:0.0035442046612264673 3:0.006520450503852994 4:0.024357124942047382 5:0.0 6:0.28023932608662533 7:0.6585365853658537 8:0.004471140818354259 9:0.0012237871025284686 10:1.1303266644060134E-4 11:0.008716027640553408 12:0.34227536861326596 13:9.582534788767602E-4 14:0.5733730025373105 
1.0 0:0.08955223880597014 1:0.0049695948500413315 2:0.006082890584295988 3:0.033787788974510964 4:0.026700956883251126 5:0.0 6:0.34417881943786055 7:0.6585365853658537 8:0.0056453798211543674 9:0.013357947356412438 10:3.3909799932180403E-4 11:0.015342596600152232 12:0.3688890495601584 13:3.333055578701775E-4 14:0.6241923953357086 
1.0 0:0.08955223880597014 1:0.0048194963359659655 2:0.04543750020740898 3:0.08713692946058091 4:0.14541131183180114 5:0.0 6:0.5981007285046669 7:0.6585365853658537 8:0.0070905970553698855 9:0.015515131401547366 10:0.005651633322030066 11:0.03826694327119681 12:0.13123895831562557 13:0.002249812515623698 14:0.7063854569565022 
1.0 0:0.029850746268656716 1:0.006589646881050627 2:0.006789740390327109 3:0.03112033195020747 4:0.03057730321211761 5:0.0 6:0.3575425271726778 7:0.3170731707317073 8:0.00722608617107759 9:0.005114422612503964 10:2.2606533288120268E-4 11:0.009596585227527125 12:0.20825265616042207 13:0.0014998750104157988 14:0.5820197348814187 
1.0 0:0.1044776119402985 1:0.0038925996304720483 2:0.010453412624403906 3:0.06431535269709543 4:0.02206562013025753 5:0.0 6:0.41083896959058863 7:0.3170731707317073 8:0.01106494444946256 9:0.025492107610296404 10:1.1303266644060134E-4 11:0.030715042610032387 12:0.4428730024546001 13:4.166319473377219E-5 14:0.6866115176689398 
1.0 0:0.07462686567164178 1:0.002159908077302363 2:0.0075297756332611 3:0.06016597510373444 4:0.02163712244237884 5:0.0 6:0.37020552932730627 7:0.3170731707317073 8:0.006458314515400596 9:0.006886395221007655 10:4.5213066576240535E-4 11:0.025685417070877424 12:0.5057941527314695 13:8.749270894092159E-4 14:0.6705274771890991 
1.0 0:0.04477611940298507 1:0.004158294820730951 2:0.004947948642217849 3:0.03556609365737996 4:0.021045468316779295 5:0.0 6:0.3193661804181702 7:0.6585365853658537 8:0.009484238099539338 9:0.0055381551927983245 10:1.1303266644060134E-4 11:0.010298046356133307 12:0.299519335610695 13:4.166319473377219E-5 14:0.5883586369736399 
1.0 0:0.07462686567164178 1:0.010284941134731322 2:0.01158171747910147 3:0.05186721991701245 4:0.031723453900116286 5:0.0 6:0.42366116131543397 7:0.3170731707317073 8:0.009890705446662451 9:0.014234303374748502 10:1.1303266644060134E-4 11:0.02068564094145038 12:0.27032507942034034 13:4.999583368052662E-4 14:0.6510590302374719 
1.0 0:0.05970149253731343 1:0.004751572377165854 2:0.0060795720406057 3:0.036455245998814466 4:0.021825316504305997 5:0.0 6:0.3441127351530253 7:0.3170731707317073 8:0.008535814289585403 9:0.007048184024392774 10:0.0 11:0.015596316582839574 12:0.3751795117280996 13:0.0 14:0.6256669418002387 
1.0 0:0.014925373134328358 1:0.002318289424614389 2:0.0027543912629381722 3:0.038233550681683465 4:0.1404822164628508 5:0.0 6:0.2516489275773795 7:0.3170731707317073 8:2.258151928461747E-4 9:0.0025720271307377984 10:1.1303266644060134E-4 11:0.008327985314090415 12:0.407279169730498 13:4.166319473377219E-5 14:0.5692819030554439 
1.0 0:0.04477611940298507 1:0.0058268604269299164 2:0.007553005439093108 3:0.025192649673977476 4:0.026653013994583072 5:0.0 6:0.37058378579023715 7:0.3170731707317073 8:0.008716466443862344 9:0.00756051523511232 10:2.2606533288120268E-4 11:0.014417264898586631 12:0.2830804846578895 13:0.0025831180734938756 14:0.6186001165604417 
1.0 0:0.0 1:0.00294158976199659 2:0.0015829453402668773 3:0.025785417901600473 4:0.030991381455603085 5:0.0 6:0.19272141910656385 7:0.3170731707317073 8:0.0013548911570770482 9:0.0072459258951968085 10:0.0 11:0.004671432622419891 12:0.3591607812164203 13:0.0 14:0.5173803423900266 
1.0 0:0.04477611940298507 1:0.0034852267465131583 2:0.00983948204170082 3:0.06224066390041494 4:0.024092339364364272 5:0.0 6:0.4032935775791608 7:0.3170731707317073 8:0.011516574835154909 9:0.03115471572877559 10:2.2606533288120268E-4 11:0.02304374430995627 12:0.35205897928648566 13:0.0014165486209482543 14:0.6607670793042387 
1.0 0:0.014925373134328358 1:0.006365111187405819 2:0.0085983467015335 3:0.04416123295791346 4:0.03387683255733491 5:0.0 6:0.3865608011762589 7:0.3170731707317073 8:0.006774455785385241 9:0.006347099209723922 10:1.1303266644060134E-4 11:0.015163500141784697 12:0.26339149165679093 13:4.166319473377219E-5 14:0.6231367974266001 
1.0 0:0.0 1:0.0032026557196462757 2:0.002611693884255833 3:0.017486662714878483 4:0.03212649378418571 5:0.0 6:0.24574170895883718 7:0.3170731707317073 8:0.002122662812754042 9:0.019559851486175353 10:4.5213066576240535E-4 11:0.006372848976911482 12:0.32612033133953316 13:0.00133322223148071 14:0.5452525581738844 
1.0 0:0.014925373134328358 1:0.008834369779682218 2:0.010838363692477194 3:0.021932424422050976 4:0.03555666735093772 5:0.0 6:0.4153567132295678 7:0.3170731707317073 8:0.009484238099539338 9:0.0152454833959055 10:1.1303266644060134E-4 11:0.012223333283584317 12:0.17024289352807692 13:8.332638946754438E-4 14:0.6037615075660656 
1.0 0:0.04477611940298507 1:0.0035518967965464305 2:0.0034346927194469977 3:0.02222880853586248 4:0.02915905727510312 5:0.0 6:0.2766300626223158 7:0.3170731707317073 8:0.0024839671213079217 9:0.008234635249216984 10:2.2606533288120268E-4 11:0.010163724012357656 12:0.41033539411099684 13:1.6665277893508876E-4 14:0.58717887031805 
1.0 0:0.029850746268656716 1:0.002693950885450151 2:0.007091727866143221 3:0.06194427978660344 4:0.021129434662097213 5:0.0 6:0.3628592666850272 7:0.3170731707317073 8:0.009258422906693162 9:0.003920267158947129 10:1.1303266644060134E-4 11:0.020133426861483814 12:0.41944850717510823 13:0.0026247812682276476 14:0.6486258666473729 
1.0 0:0.05970149253731343 1:0.004475139174561411 2:0.004489989612958249 3:0.026970954356846474 4:0.030173300499849263 5:0.0 6:0.3078439172867051 7:0.3170731707317073 8:0.0026646192755848614 9:0.008324517917764273 10:3.3909799932180403E-4 11:0.013894900228347985 12:0.44148871532926753 13:4.5829514207149406E-4 14:0.6152826222467316 
1.0 0:0.04477611940298507 1:0.006122650339875815 2:0.009275329614352039 3:0.036751630112625965 4:0.022855332774508456 5:0.0 6:0.3959526970650389 7:0.3170731707317073 8:0.015716737422093757 9:0.03223330775134305 10:1.1303266644060134E-4 11:0.015506768353655807 12:0.2506323787373302 13:7.916006999416715E-4 14:0.6251492681393954 
1.0 0:0.08955223880597014 1:0.010670485317575302 2:0.01569339311136701 3:0.04682868998221695 4:0.032298543776962604 5:0.0 6:0.46194984428022157 7:0.3170731707317073 8:0.012284346490831903 9:0.019155379477712554 10:0.002034587995930824 11:0.02984940972792263 12:0.2908171105461905 13:0.0019581701524872927 14:0.684040237317331 
1.0 0:0.07462686567164178 1:0.00969192156588682 2:0.01111380281877101 3:0.03230586840545347 4:0.03343482325401108 5:0.0 6:0.4184958059545154 7:0.3170731707317073 8:0.008987444675277753 9:0.009582875277426314 10:0.0022606533288120267 11:0.018879751652911062 12:0.2566961115979497 13:0.0010415798683443046 14:0.6428447890497807 
1.0 0:0.07462686567164178 1:0.0064412421670316106 2:0.010453412624403906 3:0.03734439834024896 4:0.027055596294247468 5:0.0 6:0.41083896959058863 7:0.6585365853658537 8:0.012510161683678078 9:0.01672854742693576 10:3.3909799932180403E-4 11:0.017193260003283434 12:0.24790558737983445 13:0.0010832430630780768 14:0.6344312890715051 
1.0 0:0.029850746268656716 1:0.0038697238984743572 2:0.003560797379677902 3:0.02074688796680498 4:0.028826881546474475 5:0.0 6:0.28077757420238914 7:0.3170731707317073 8:0.0024839671213079217 9:0.006616747215365789 10:0.001017293997965412 11:0.010880109845827799 12:0.42549695989316316 13:3.749687526039497E-4 14:0.5932994399283426 
1.0 0:0.07462686567164178 1:0.008968155061120076 2:0.013493198644706756 3:0.04771784232365145 4:0.029906503455913395 5:0.0 6:0.44286403277264363 7:0.6585365853658537 8:0.01472315057357059 9:0.03304225176826865 10:0.0 11:0.017760398788113967 12:0.20031221212396436 13:0.0 14:0.637349266746664 
1.0 0:0.029850746268656716 1:0.0075811851109811755 2:0.007022038448647195 3:0.02756372258446947 4:0.025901404076797606 5:0.0 6:0.3616514238731552 7:0.3170731707317073 8:0.010252009755216332 9:0.013290535355001971 10:4.5213066576240535E-4 11:0.009611509932391087 12:0.20210474318364688 13:0.0014165486209482543 14:0.5821593604949648 
1.0 0:0.13432835820895522 1:0.009478030723914711 2:0.017721023306132337 3:0.05186721991701245 4:0.02396644645254454 5:0.0 6:0.4773643421872159 7:0.3170731707317073 8:0.02104597597326348 9:0.015784779407189233 10:1.1303266644060134E-4 11:0.03975941375759294 12:0.34417822937667936 13:8.332638946754438E-5 14:0.7098271265038572 
1.0 0:0.07462686567164178 1:0.007452079035191797 2:0.010171336410729516 3:0.044754001185536456 4:0.02813012270105828 5:0.0 6:0.4074262850051828 7:0.3170731707317073 8:0.01106494444946256 9:0.008414400586311562 10:4.5213066576240535E-4 11:0.0174768293956987 12:0.2586774643795709 13:0.00133322223148071 14:0.6359021047018781 
1.0 0:0.04477611940298507 1:0.005841925133654645 2:0.00518688378791851 3:0.03052756372258447 4:0.02275969186307221 5:0.0 6:0.32499657994696796 7:0.3170731707317073 8:0.0071809231325083555 9:0.006818983219597188 10:2.2606533288120268E-4 11:0.012566601495455427 12:0.3500476589759237 13:4.5829514207149406E-4 14:0.6062508302953772 
1.0 0:0.07462686567164178 1:0.005922853296052029 2:0.010649206702130837 3:0.02963841138114997 4:0.029726274313519548 5:0.0 6:0.41315633899860854 7:0.6585365853658537 8:0.012464998645108843 9:0.014885952721716344 10:1.1303266644060134E-4 11:0.01225318269331224 12:0.17356323794203624 13:1.2498958420131655E-4 14:0.6039807249457956 
1.0 0:0.05970149253731343 1:0.004151129875566246 2:0.010280848352508984 3:0.06876111440426794 4:0.027778133246041326 5:0.0 6:0.4087618349232953 7:0.3170731707317073 8:0.009664890253816276 9:0.013223123353591505 10:2.2606533288120268E-4 11:0.022401982000805933 12:0.3281962253528956 13:0.00229147571035747 14:0.6582270264171088 
1.0 0:0.04477611940298507 1:0.002458124135568386 2:0.004277602816779884 3:0.024599881446354475 4:0.025665172565799976 5:0.0 6:0.302133901813621 7:0.3170731707317073 8:0.003929184355523439 9:0.010661467299993779 10:0.0 11:0.012208408578720355 12:0.40527592799230605 13:0.0 14:0.603651698290845 
1.0 0:0.04477611940298507 1:0.007758923153670456 2:0.010941238546876089 3:0.02963841138114997 4:0.02993879609072616 5:0.0 6:0.4165380032148202 7:0.3170731707317073 8:0.011968205220847258 9:0.004837070378129473 10:5.651633322030067E-4 11:0.014611286061818128 12:0.20166609725242426 13:0.0014165486209482543 14:0.6198018323832165 
1.0 0:0.08955223880597014 1:0.03404513621923648 2:0.04700717137291471 3:0.07468879668049792 4:0.031948110662840354 5:0.0 6:0.6024856184940073 7:0.3170731707317073 8:0.05148586396892783 9:0.015481425400842132 10:2.2606533288120268E-4 11:0.037744578600958166 12:0.1251672472894001 13:8.332638946754438E-5 14:0.7051490865187737 
1.0 0:0.04477611940298507 1:0.003361407830821168 2:0.005953467380374796 3:0.04919976289270895 4:0.025517879808167332 5:0.0 6:0.3415763918232556 7:0.3170731707317073 8:0.005600216782585132 9:0.015515131401547366 10:5.651633322030067E-4 11:0.016058982433622374 12:0.3938995962007125 13:6.66611115740355E-4 14:0.628295154404256 
1.0 0:0.05970149253731343 1:0.004184667229407951 2:0.009102765342457115 3:0.06994665085951393 4:0.02522327818741217 5:0.0 6:0.3936221534909098 7:0.6585365853658537 8:0.010387498870924036 9:0.0271099956441476 10:2.2606533288120268E-4 11:0.019909556288524394 12:0.3275977582391089 13:0.0014165486209482543 14:0.6476203959649454 
1.0 0:0.08955223880597014 1:0.00521433043676776 2:0.012354938158938332 3:0.04564315352697095 4:0.02631389994728383 5:0.0 6:0.43177244439786283 7:0.6585365853658537 8:0.014497335380724416 9:0.012602932940615213 10:1.1303266644060134E-4 11:0.02261092786890139 12:0.27766277433896497 13:4.166319473377219E-5 14:0.6590619175338389 
1.0 0:0.08955223880597014 1:0.004113611527866831 2:0.00926205543959089 3:0.046235921754593956 4:0.02019639163507184 5:0.0 6:0.39577489562873097 7:0.3170731707317073 8:0.013774726763616655 9:0.003920267158947129 10:2.2606533288120268E-4 11:0.025461546497918004 12:0.41209082227763205 13:0.0015415382051495708 14:0.6697401695435462 
1.0 0:0.05970149253731343 1:0.013990638783214677 2:0.01163813272183635 3:0.035269709543568464 4:0.02737238427318927 5:0.0 6:0.42427033804237296 7:0.3170731707317073 8:0.015219943997832174 9:0.009313227271784448 10:1.1303266644060134E-4 11:0.014775457815321701 12:0.19218928244267997 13:0.0012498958420131656 14:0.6208062827799296 
1.0 0:0.05970149253731343 1:0.004652445208158081 2:0.006371603885350952 3:0.04001185536455246 4:0.023808285308807884 5:0.0 6:0.3498036356743513 7:0.3170731707317073 8:0.004877608165477373 9:0.009043579266142581 10:1.1303266644060134E-4 11:0.02107368326791338 12:0.485285382981591 13:2.0831597366886094E-4 14:0.6527302967995663 
1.0 0:0.05970149253731343 1:0.005383825851821564 2:0.019768564763039388 3:0.04060462359217546 4:0.03354652481873689 5:0.0 6:0.4912763872288752 7:0.6585365853658537 8:0.018516845813386324 9:0.010661467299993779 10:4.5213066576240535E-4 11:0.022416906705669894 12:0.1744148551661966 13:9.999166736105324E-4 14:0.6582869190581728 
1.0 0:0.014925373134328358 1:0.0025034313802436547 2:0.002565234272591816 3:0.02074688796680498 4:0.05602333225461791 5:0.0 6:0.2437592140343664 7:0.6585365853658537 8:8.129346942462289E-4 9:0.0064819232125448555 10:4.5213066576240535E-4 11:0.00702953599092578 12:0.365241286308033 13:3.749687526039497E-4 14:0.5540584725132036 
1.0 0:0.014925373134328358 1:0.0029893395112193513 2:0.006378240972731527 3:0.04712507409602845 4:0.02937849457462144 5:0.0 6:0.34993013164288295 7:0.6585365853658537 8:0.005916358052569777 9:0.00445956317023086 10:1.1303266644060134E-4 11:0.01316358969001388 12:0.3028375041032911 13:4.166319473377219E-5 14:0.6104225478121417 
1.0 0:0.04477611940298507 1:0.010198563395444386 2:0.010566243109873663 3:0.02934202726733847 4:0.03034216827451665 5:0.0 6:0.41217942556682874 7:0.6585365853658537 8:0.008445488212446933 9:0.0148410113874427 10:3.3909799932180403E-4 11:0.023073593719684194 12:0.3292897470504776 13:2.499791684026331E-4 14:0.6608834941844808 
1.0 0:0.04477611940298507 1:0.00406217273338827 2:0.007732206798368604 3:0.03912270302311796 4:0.02599486606742269 5:0.0 6:0.37346546440168626 7:0.3170731707317073 8:0.008580977328154639 9:0.0152454833959055 10:6.781959986436081E-4 11:0.01656642239899706 12:0.31816745900543236 13:4.999583368052662E-4 14:0.6310921029965433 
1.0 0:0.40298507462686567 1:0.009150690610741436 2:0.16296704354261177 3:0.32868998221695317 4:0.025203288329525966 5:0.0 6:0.7637088344562487 7:0.3170731707317073 8:0.24966127721073073 9:0.007772381525259499 10:6.781959986436081E-4 11:0.1825589898959748 12:0.17584847577163215 13:0.02116490292475627 14:0.8469638750726306 
1.0 0:0.04477611940298507 1:0.0064037563693709575 2:0.004105038544884963 3:0.016597510373443983 4:0.02608884502776107 5:0.0 6:0.2973030779378553 7:0.3170731707317073 8:0.005238912474031253 9:0.005403331189977391 10:2.2606533288120268E-4 11:0.008029491216811187 12:0.27661649203056576 13:4.999583368052662E-4 14:0.5660032639252097 
1.0 0:0.05970149253731343 1:0.0043525041126108235 2:0.007848355827528648 3:0.03882631890930646 4:0.024240199085570097 5:0.0 6:0.3752997749963232 7:0.6585365853658537 8:0.007858368711046879 9:0.00756051523511232 10:4.5213066576240535E-4 11:0.021252779726280913 12:0.4024685908221852 13:0.0012915590367469378 14:0.653491305054776 
1.0 0:0.13432835820895522 1:0.004517211556745017 2:0.012374849421080053 3:0.051570835803200946 4:0.03236335722374652 5:0.0 6:0.4319747987182599 7:0.3170731707317073 8:0.005600216782585132 9:0.007803198440189998 10:5.651633322030067E-4 11:0.03807292210796531 12:0.4668114102089976 13:2.0831597366886094E-4 14:0.7059282142418997 
1.0 0:0.0 1:0.002853585863719756 2:4.4800339818873886E-4 3:0.014226437462951986 4:0.03826067223952808 5:0.0 6:0.08759362496000228 7:0.6585365853658537 8:2.7097823141540963E-4 9:0.00715604322664952 10:1.1303266644060134E-4 11:0.0026715221706490756 12:0.4608398972975325 13:4.166319473377219E-5 14:0.4673073835995189 
1.0 0:0.1044776119402985 1:0.005444490784500671 2:0.017969914082903857 3:0.02874925903971547 4:0.053253245464774106 5:0.0 6:0.4791368257532664 7:0.6585365853658537 8:0.00794869478818535 9:0.008966536978816336 10:4.5213066576240535E-4 11:0.025386922973598198 12:0.21679536072324324 13:4.999583368052662E-4 14:0.6694761954913145 
1.0 0:0.014925373134328358 1:0.005714152577208228 2:0.004383796214869067 3:0.03082394783639597 4:0.03540143811968655 5:0.0 6:0.3050201570002193 7:0.3170731707317073 8:0.003522717008400325 9:0.016863371429756694 10:1.1303266644060134E-4 11:0.007447427727116696 12:0.24181323309837488 13:6.249479210065828E-4 14:0.5592444408761476 
1.0 0:0.31343283582089554 1:0.00670994290711139 2:0.05393960914192416 3:0.31594546532305867 4:0.027440538813603338 5:0.0 6:0.620261159413312 7:0.3170731707317073 8:0.054195646283081926 9:0.007627927236522786 10:1.1303266644060134E-4 11:0.10311478590510872 12:0.2983733263456788 13:0.008249312557286892 14:0.7955652528225363 
1.0 0:0.029850746268656716 1:0.004702683157128761 2:0.008326226118929969 3:0.05838767042086544 4:0.03256874343073248 5:0.0 6:0.38258642401204174 7:0.3170731707317073 8:0.006097010206846717 9:0.03223330775134305 10:2.2606533288120268E-4 11:0.017909645836753578 12:0.32072219960348847 13:0.0016665277893508875 14:0.638101684925089 
1.0 0:0.08955223880597014 1:0.004313415235135464 2:0.007204558351612978 3:0.033491404860699465 4:0.026710545460984735 5:0.0 6:0.3647914106662055 7:0.3170731707317073 8:0.004335651702646554 9:0.007857128041318372 10:5.651633322030067E-4 11:0.02362580779965076 12:0.4849653425590227 13:5.416215315390384E-4 14:0.6630104418236781 
0.9827566880867037 0:0.014925373134328358 1:0.002103016592969645 2:0.0037731841758562672 3:0.04297569650266746 4:0.019218883137962283 5:0.0 6:0.287477851210474 7:0.3170731707317073 8:0.004019510432661909 9:0.00994240595161547 10:0.0 11:0.014387415488858708 12:0.534460816305569 13:0.0 14:0.618413804506566 
1.0 0:0.014925373134328358 1:0.0019013385541601733 2:0.006793058934017396 3:0.06283343212803794 4:0.03564414957709935 5:1.0 6:0.35760214652609623 7:0.6585365853658537 8:5.419564628308193E-4 9:0.006616747215365789 10:4.5213066576240535E-4 11:0.030252376759249584 12:0.6561976937134287 13:2.499791684026331E-4 14:0.6852463584388726 
1.0 0:0.04477611940298507 1:0.009392480165917035 2:0.012789667382365923 3:0.04119739181979846 4:0.024667365812392348 5:0.0 6:0.43612064474061374 7:0.6585365853658537 8:0.015942552614939935 9:0.016863371429756694 10:2.2606533288120268E-4 11:0.02576004059519723 12:0.30595845899054425 13:1.6665277893508876E-4 14:0.6707883897809163 
1.0 0:0.014925373134328358 1:0.0046714574340949435 2:0.004493308156648537 3:0.026970954356846474 4:0.02694067132659139 5:0.0 6:0.3079311821500023 7:0.3170731707317073 8:0.004335651702646554 9:0.004729211175872727 10:1.1303266644060134E-4 11:0.011253227467426831 12:0.3573143699739119 13:8.332638946754438E-5 14:0.5963296484397316 
1.0 0:0.029850746268656716 1:0.004248188816412635 2:0.010363811944766158 3:0.03882631890930646 4:0.0224764930367219 5:0.0 6:0.4097645873131744 7:0.6585365853658537 8:0.01178755306657032 9:0.005268507187156458 10:2.2606533288120268E-4 11:0.02825246630747877 12:0.41073647744332165 13:0.0024164652945587867 14:0.6790948134017436 
1.0 0:0.05970149253731343 1:0.009853722033174838 2:0.005973378642516518 3:0.023414344991108477 4:0.028647949553986512 5:0.0 6:0.34198016097961276 7:0.6585365853658537 8:0.006729292746816006 9:0.008841343261911183 10:2.2606533288120268E-4 11:0.009820455800486546 12:0.24013413412425422 13:7.082743104741271E-4 14:0.584091707223838 
1.0 0:0.014925373134328358 1:0.0029923038728679853 2:0.0010586154372015384 3:0.00889152341434499 4:0.023242922374963147 5:0.0 6:0.1542141406090575 7:0.6585365853658537 8:0.0017161954656309277 9:0.008773931260500717 10:3.3909799932180403E-4 11:0.003567004462486754 12:0.36865060369129304 13:2.916423631364053E-4 14:0.49319551640056136 
1.0 0:0.04477611940298507 1:0.005155751133040782 2:0.006965623205912317 3:0.06283343212803794 4:0.026333008383847084 5:0.0 6:0.3606653864135276 7:0.3170731707317073 8:0.008174509981031523 9:0.009717699280247247 10:4.5213066576240535E-4 11:0.013581481426204797 12:0.2877511266719418 13:9.999166736105324E-4 14:0.6132317874351934 
1.0 0:0.04477611940298507 1:0.0034976143920184013 2:0.0035873457292001977 3:0.02756372258446947 4:0.023431251876089954 5:0.0 6:0.281634177172443 7:0.3170731707317073 8:0.004335651702646554 9:0.005942627201261124 10:1.1303266644060134E-4 11:0.009910004029670313 12:0.3850189891357914 13:7.082743104741271E-4 14:0.58490732026827 
1.0 0:0.04477611940298507 1:0.01188005467145911 2:0.029933264086388328 3:0.07024303497332543 4:0.031598412480609274 5:0.0 6:0.5443555238779397 7:0.6585365853658537 8:0.03260771384698762 9:0.040053099914957174 10:1.1303266644060134E-4 11:0.027371908720505052 12:0.14175343502354817 13:8.332638946754438E-5 14:0.6762469851345385 
1.0 0:0.014925373134328358 1:0.004101641148373031 2:0.0019513036898887292 3:0.00978067575577949 4:0.019503475403242074 5:0.0 6:0.21426444211916335 7:0.3170731707317073 8:0.002890434468431036 9:0.004189915164588994 10:1.1303266644060134E-4 11:0.007342954793068967 12:0.4784796342958143 13:4.166319473377219E-5 14:0.5579756971425611 
1.0 0:0.029850746268656716 1:0.003175870410111944 2:0.003331817865048102 3:0.02133965619442798 4:0.03709141367475525 5:0.0 6:0.273146066269892 7:0.3170731707317073 8:0.0015355433113539878 9:0.00985252328306818 10:4.5213066576240535E-4 11:0.010238347536677463 12:0.4245490029357909 13:1.6665277893508876E-4 14:0.5878362047958368 
1.0 0:0.014925373134328358 1:0.003110085030648576 2:0.002863903204717642 3:0.013633669235328987 4:0.03673616047445345 5:0.0 6:0.2560075833593747 7:0.6585365853658537 8:0.0016710324270616927 9:0.004189915164588994 10:0.0 11:0.007656373595212155 12:0.36211470900844617 13:0.0 14:0.56172949357818 
1.0 0:0.07462686567164178 1:0.007506791985107328 2:0.010552968935112515 3:0.05216360403082395 4:0.026313984282600525 5:0.0 6:0.4120224380867455 7:0.6585365853658537 8:0.012329509529401138 9:0.007290867229470453 10:2.2606533288120268E-4 11:0.01973045983015686 12:0.2819181945589923 13:0.001124906257811849 14:0.6468078514839003 
1.0 0:0.04477611940298507 1:0.0062817377193218615 2:0.00480525126353551 3:0.01867219917012448 4:0.024901873739875527 5:0.0 6:0.3158838590785364 7:0.3170731707317073 8:0.006142173245415951 9:0.0047831407770011 10:2.2606533288120268E-4 11:0.01034282047072519 12:0.30896726646594314 13:4.999583368052662E-4 14:0.5887484802831627 
1.0 0:0.05970149253731343 1:0.014977662919573415 2:0.012162462624901688 3:0.03082394783639597 4:0.028887489047838295 5:0.0 6:0.4297999934150868 7:0.6585365853658537 8:0.015400596152109114 9:0.03196365974570119 10:2.2606533288120268E-4 11:0.012506902675999581 12:0.15592619874204974 13:1.6665277893508876E-4 14:0.6058228214510485 
1.0 0:0.04477611940298507 1:0.008838387555680269 2:0.009116039517218264 3:0.026970954356846474 4:0.029864968618042727 5:0.0 6:0.39380291212460256 7:0.6585365853658537 8:0.009845542408093216 9:0.010661467299993779 10:4.5213066576240535E-4 11:0.013014342641374266 12:0.21384516484403848 13:0.002041496541954837 14:0.6093976086016324 
1.0 0:0.04477611940298507 1:0.003913486828367751 2:0.008137069128583613 3:0.04297569650266746 4:0.034196404501012856 5:0.0 6:0.3797506121129794 7:0.3170731707317073 8:0.006097010206846717 9:0.012818651345128705 10:1.1303266644060134E-4 11:0.015282897780696386 12:0.27970143432086947 13:9.582534788767602E-4 14:0.6238419034033374 
1.0 0:0.08955223880597014 1:0.007887335812873904 2:0.009892578740745412 3:0.03764078245406046 4:0.02982764927357695 5:0.0 6:0.4039636745361302 7:0.3170731707317073 8:0.008445488212446933 9:0.012279355333844975 10:2.2606533288120268E-4 11:0.020819963285226034 12:0.3164536964423126 13:0.0012915590367469378 14:0.6516410647558196 
1.0 0:0.07462686567164178 1:0.008021831193055353 2:0.010562924566183376 3:0.03764078245406046 4:0.024723252148036803 5:0.0 6:0.41214019640926675 7:0.6585365853658537 8:0.012464998645108843 9:0.017402667441040427 10:3.3909799932180403E-4 11:0.022984045490500427 12:0.32811048861331304 13:2.499791684026331E-4 14:0.6605337967630257 
1.0 0:0.04477611940298507 1:0.006441936050629128 2:0.007221151070064413 3:0.03171310017783047 4:0.03812393193958775 5:0.0 6:0.3650731505323792 7:0.3170731707317073 8:0.004606629934061963 9:0.01120076331127751 10:1.1303266644060134E-4 11:0.013596406131068758 12:0.2784899684257783 13:7.082743104741271E-4 14:0.6133305133802323 
1.0 0:0.04477611940298507 1:0.009799535164419311 2:0.007931319419785822 3:0.03586247777119146 4:0.028467639647364974 5:0.0 6:0.3765943789694285 7:0.3170731707317073 8:0.008490651251016168 9:0.03304225176826865 10:1.1303266644060134E-4 11:0.013924749638075907 12:0.261090371738279 13:4.999583368052662E-4 14:0.6154755241209783 
1.0 0:0.04477611940298507 1:0.0033251719707901796 2:0.0060065640794193876 3:0.023414344991108477 4:0.02191123156413729 5:0.0 6:0.342650344023415 7:0.6585365853658537 8:0.008400325173877699 9:0.06782684449606936 10:1.1303266644060134E-4 11:0.015357521305016194 12:0.373603122583496 13:0.0026247812682276476 14:0.6242798054347396 
1.0 0:0.04477611940298507 1:0.006573182582012192 2:0.004964541360669284 3:0.021636040308239478 4:0.030614710517588666 5:0.0 6:0.3197651324984167 7:0.3170731707317073 8:0.004516303856923494 9:0.007964987243575118 10:4.5213066576240535E-4 11:0.009939853439398235 12:0.28821771041934646 13:5.832847262728105E-4 14:0.5851775567772906 
1.0 0:0.029850746268656716 1:0.003293605355103924 2:0.00457627174890571 3:0.022821576763485476 4:0.028029659797765717 5:0.0 6:0.31009403990141976 7:0.6585365853658537 8:0.0037485322012464997 9:0.020099147497459086 10:2.2606533288120268E-4 11:0.01237258033222393 12:0.386390545038102 13:8.332638946754438E-5 14:0.6048522929198983 
1.0 0:0.1044776119402985 1:0.002636672818212537 2:0.00888042291520789 3:0.08002371072910491 4:0.019698363093284547 5:0.0 6:0.390556598797374 7:0.3170731707317073 8:0.01088429229518562 9:0.00985252328306818 10:3.3909799932180403E-4 11:0.028536035699894033 12:0.4807120087906349 13:0.005666194483793017 14:0.6799930531200183 
1.0 0:0.029850746268656716 1:0.004551327734643669 2:0.006726688060211657 3:0.03438055720213397 4:0.025556228218438552 5:0.0 6:0.35640455010946454 7:0.3170731707317073 8:0.005826031975431307 9:0.016324075418472965 10:5.651633322030067E-4 11:0.01898422458695879 12:0.4155831532785508 13:6.66611115740355E-4 14:0.6433409863126051 
1.0 0:0.04477611940298507 1:0.005494035320456538 2:0.00876095534235756 3:0.02756372258446947 4:0.03161121932990701 5:0.0 6:0.38887918231858865 7:0.3170731707317073 8:0.008039020865323819 9:0.017402667441040427 10:3.3909799932180403E-4 11:0.01440234019372267 12:0.24576059592727925 13:6.66611115740355E-4 14:0.6185070087509177 
1.0 0:0.029850746268656716 1:0.003725068911933399 2:0.006165854176553161 3:0.053349140486069944 4:0.02495238384774992 5:0.0 6:0.345820136511534 7:0.3170731707317073 8:0.007858368711046879 9:0.018750907469249754 10:5.651633322030067E-4 11:0.012685999134367118 12:0.30119875739789576 13:0.0039163403049745854 14:0.6071007888207731 
1.0 0:0.04477611940298507 1:0.004022169232572426 2:0.009749881362063072 3:0.06253704801422644 4:0.031033096813623037 5:0.0 6:0.4021549226500907 7:0.6585365853658537 8:0.008400325173877699 9:0.01389724336769617 10:3.3909799932180403E-4 11:0.01850663403131203 12:0.2852218573666761 13:0.00229147571035747 14:0.6410499810531631 
1.0 0:0.07462686567164178 1:0.006435440179998051 2:0.008495471847134603 3:0.034973325429756966 4:0.02993678607686241 5:0.0 6:0.3850724959270772 7:0.6585365853658537 8:0.007497064402492999 9:0.007695339237933253 10:5.651633322030067E-4 11:0.01726788352760324 12:0.3033886495399181 13:7.916006999416715E-4 14:0.6348206825387931 
1.0 0:0.0 1:0.002006548342805234 2:1.6260864082406077E-4 3:0.01778304682868998 4:0.03352163184442603 5:0.0 6:0.03889881921640696 7:0.3170731707317073 8:2.258151928461747E-4 9:0.006077451204082056 10:0.0 11:0.0018208139934032805 12:0.4570121650064206 13:0.0 14:0.4330421655866683 
1.0 0:0.08955223880597014 1:0.002105339126671825 2:0.0061459429144114395 3:0.033491404860699465 4:0.022202693561748994 5:0.0 6:0.34542810014418746 7:0.3170731707317073 8:0.004922771204046608 9:0.006706629883913077 10:2.2606533288120268E-4 11:0.021387102070056566 12:0.5093151447340343 13:8.332638946754438E-5 14:0.6540578674081643 
1.0 0:0.029850746268656716 1:0.00596032813312053 2:0.013231033693174087 3:0.038233550681683465 4:0.02751508939632643 5:0.0 6:0.44039174054219254 7:0.3170731707317073 8:0.017342606810586216 9:0.023604571570803343 10:2.2606533288120268E-4 11:0.015984358909302568 12:0.1837319718376677 13:0.001791517373552204 14:0.6278764068367453 
1.0 0:0.04477611940298507 1:0.0045764314107546895 2:0.009165817672572569 3:0.045050385299347954 4:0.028622064022970694 5:0.0 6:0.394478534426457 7:0.3170731707317073 8:0.010297172793785565 9:0.0152454833959055 10:2.2606533288120268E-4 11:0.014148620211035327 12:0.2312813764066907 13:4.5829514207149406E-4 14:0.6169092563583207 
1.0 0:0.07462686567164178 1:0.003880045125517651 2:0.008429100973328864 3:0.048014226437462955 4:0.0251544084908917 5:0.0 6:0.38410320619343186 7:0.3170731707317073 8:0.007722879595339174 9:0.006077451204082056 10:1.1303266644060134E-4 11:0.022879572556452697 12:0.40498328129577105 13:5.832847262728105E-4 14:0.6601240914509952 
1.0 0:0.014925373134328358 1:0.0052129579816064114 2:0.005303032817078553 3:0.024007113218731477 4:0.02896931085169942 5:0.0 6:0.3276481999931607 7:0.6585365853658537 8:0.006232499322554421 9:0.02576175561593827 10:0.0 11:0.007850394758443652 12:0.2142721395043686 13:0.0 14:0.5639771665597945 
1.0 0:0.029850746268656716 1:0.0030487101883052803 2:0.005548605050159788 3:0.022821576763485476 4:0.024264269472252877 5:0.0 6:0.33308304193046373 7:0.6585365853658537 8:0.005419564628308193 9:0.02108785685147926 10:1.1303266644060134E-4 11:0.015864961270390877 12:0.41534100095422577 13:1.6665277893508876E-4 14:0.6272023311015397 
1.0 0:0.05970149253731343 1:0.002576492508334591 2:0.0031791648552949026 3:0.03052756372258447 4:0.025447354568252575 5:0.0 6:0.2677984389439782 7:0.3170731707317073 8:0.0020323367356155724 9:0.00507590146884084 10:4.5213066576240535E-4 11:0.011700968613345672 12:0.5055259530143583 13:2.499791684026331E-4 14:0.5998361448978401 
1.0 0:0.05970149253731343 1:0.002576492508334591 2:0.0030729714572057198 3:0.03052756372258447 4:0.024669939571064534 5:0.0 6:0.2639446454646895 7:0.3170731707317073 8:0.002167825851323277 9:0.00507590146884084 10:4.5213066576240535E-4 11:0.011223378057698909 12:0.49944810528121486 13:2.499791684026331E-4 14:0.5960909515096535 
1.0 0:0.029850746268656716 1:0.0030506380707309272 2:0.0028041694182924766 3:0.01926496739774748 4:0.030852343306405256 5:0.0 6:0.2536482104703785 7:0.6585365853658537 8:0.0018065215427693975 9:0.005268507187156458 10:1.1303266644060134E-4 11:0.00874587705028133 12:0.42120267390464433 13:3.749687526039497E-4 14:0.5736801314698323 
1.0 0:0.014925373134328358 1:0.0033798253905778486 2:0.006301914467854926 3:0.05986959098992294 4:0.03730981921632858 5:0.0 6:0.3484679673307315 7:0.3170731707317073 8:0.002845271429861801 9:0.006257216541176634 10:2.2606533288120268E-4 11:0.01782009760756981 12:0.41458810260710777 13:0.0012498958420131656 14:0.6376509893759371 
1.0 0:0.04477611940298507 1:0.005670260632942658 2:0.00579749582693131 3:0.022821576763485476 4:0.03262051463417736 5:0.0 6:0.33836952626737754 7:0.3170731707317073 8:0.004787282088338903 9:0.024413515587728942 10:2.2606533288120268E-4 11:0.011103980418787218 12:0.2791455888631571 13:9.999166736105324E-4 14:0.5951297814653536 
1.0 0:0.04477611940298507 1:0.00641603493037274 2:0.016815060878683997 3:0.07320687611144043 4:0.028290240369350135 5:0.0 6:0.4707011039835411 7:0.6585365853658537 8:0.01856200885195556 9:0.008594165923406139 10:1.1303266644060134E-4 11:0.02634210408489172 12:0.23998652989775243 13:0.0019581701524872927 14:0.6727979544826832 
1.0 0:0.05970149253731343 1:0.0037598681614450847 2:0.005442411652070605 3:0.03141671606401897 4:0.02206599821645272 5:0.0 6:0.33076057951828963 7:0.3170731707317073 8:0.005374401589738957 9:0.00715604322664952 10:3.3909799932180403E-4 11:0.01759622703461039 12:0.46894675695591137 13:5.416215315390384E-4 14:0.636514275021017 
1.0 0:0.04477611940298507 1:0.007460209674754004 2:0.008263173788814516 3:0.036455245998814466 4:0.028359780831165735 5:0.0 6:0.3816479881002898 7:0.3170731707317073 8:0.008716466443862344 9:0.009043579266142581 10:9.042613315248107E-4 11:0.014954554273689238 12:0.26973773541290885 13:0.0016248645946171153 14:0.621889409475296 
1.0 0:0.029850746268656716 1:0.0026989884115455206 2:0.0030796085445862938 3:0.022525192649673977 4:0.030995211621863184 5:0.0 6:0.2641888727520389 7:0.6585365853658537 8:0.002077499774184807 9:0.0038663375578187552 10:0.0 11:0.009059295852424518 12:0.402389993599432 13:0.0 14:0.5768432395107332 
1.0 0:0.07462686567164178 1:0.006270575062691537 2:0.010768674274981167 3:0.03289863663307647 4:0.041965408601174654 5:0.0 6:0.4145503617722796 7:0.6585365853658537 8:0.006864781862523711 9:0.0064549584119806686 10:0.0 11:0.014656060176410012 12:0.20539153885478764 13:0.0 14:0.6200768871767067 
1.0 0:0.029850746268656716 1:0.005266337516625957 2:0.0071979212642324045 3:0.044754001185536456 4:0.02436770874802162 5:0.0 6:0.3646785440790385 7:0.3170731707317073 8:0.01043266190949327 9:0.020638443508742818 10:2.2606533288120268E-4 11:0.012835246183006731 12:0.26369643128507697 13:9.165902841429881E-4 14:0.6081520705185577 
1.0 0:0.08955223880597014 1:0.004187075775447102 2:0.011950075828723324 3:0.08950800237107291 4:0.023068921486200898 5:0.0 6:0.4275883057177937 7:0.3170731707317073 8:0.016123204769216873 9:0.02657069963286387 10:2.2606533288120268E-4 11:0.02619285703625211 12:0.33213844389771446 13:0.002333138905091242 14:0.6722869440812305 
1.0 0:0.029850746268656716 1:0.003018215581892094 2:0.005183565244228223 3:0.03141671606401897 4:0.024768109362293178 5:0.0 6:0.32492002148669386 7:0.6585365853658537 8:0.0057357058982928375 9:0.019775569890688845 10:5.651633322030067E-4 11:0.013059116755966152 12:0.363980595576741 13:0.0010415798683443046 14:0.6097063179605696 
1.0 0:0.07462686567164178 1:0.006985402477091241 2:0.011913571848130166 3:0.05097806757557795 4:0.03224141895006758 5:0.0 6:0.42720436574649673 7:0.3170731707317073 8:0.01043266190949327 9:0.010661467299993779 10:1.1303266644060134E-4 11:0.019387191618285747 12:0.2465642193180929 13:0.0021664861261561537 14:0.6452296639766674 
1.0 0:0.1044776119402985 1:0.006168525807863066 2:0.010128195342755785 3:0.03734439834024896 4:0.02240369619137165 5:0.0 6:0.4068963810621266 7:0.3170731707317073 8:0.010658477102339445 9:0.004729211175872727 10:1.1303266644060134E-4 11:0.0292822709430921 12:0.4351769202805962 13:2.0831597366886094E-4 14:0.6823148715402512 
